{"learner":{"attributes":{"best_iteration":"131","best_ntree_limit":"132"},"feature_names":["hrt","bmi","hip_fracture_parents","osteoporotic_fracture_parents","corticosteroids","steroid_daily_dosage","aromatase_inhibitors","antiepileptic_drugs","rheumatoid_arthritis","ankylosing_spondylitis","number_of_falls","immobility","type_1_diabetes","copd","gastrointestinal_disease","early_menopause","hyperpara","alcohol","nicotin","decrease_in_height","low_back_pain","hyperkyphosis","falling_test_abnormal","age","Bisphosphonat_prior","SERM_prior","HRT_prior","Denosumab_prior","Teriparatide_prior","Bisphosphonat_current","SERM_current","HRT_current","Denosumab_current","Teriparatide_current","Bisphosphonat_new","SERM_new","HRT_new","Denosumab_new","Teriparatide_new","No_treatment","recent_fracture","previous_fracture","tscore_ls","tscore_neck","tscore_totalHip","tbs_ls","min_tscore"],"feature_types":[],"gradient_booster":{"model":{"gbtree_model_param":{"num_parallel_tree":"1","num_trees":"132","size_leaf_vector":"0"},"tree_info":[0,0,0,0,0,0,0,0,0,0,0,0,0,0,0,0,0,0,0,0,0,0,0,0,0,0,0,0,0,0,0,0,0,0,0,0,0,0,0,0,0,0,0,0,0,0,0,0,0,0,0,0,0,0,0,0,0,0,0,0,0,0,0,0,0,0,0,0,0,0,0,0,0,0,0,0,0,0,0,0,0,0,0,0,0,0,0,0,0,0,0,0,0,0,0,0,0,0,0,0,0,0,0,0,0,0,0,0,0,0,0,0,0,0,0,0,0,0,0,0,0,0,0,0,0,0,0,0,0,0,0,0],"trees":[{"base_weights":[2.8558523E1,3.1388493E1,2.2463177E1,8.641443E-1,2.5489574E1,5.958619E-1,2.5215828E-1,7.0289236E-1,3.8606715E-1],"categories":[],"categories_nodes":[],"categories_segments":[],"categories_sizes":[],"default_left":[0,0,0,0,0,0,0,0,0],"id":0,"left_children":[1,3,5,-1,7,-1,-1,-1,-1],"loss_changes":[4.6573828E2,5.192383E1,5.222119E1,0E0,2.8613281E1,0E0,0E0,0E0,0E0],"parents":[2147483647,0,0,1,1,2,2,4,4],"right_children":[2,4,6,-1,8,-1,-1,-1,-1],"split_conditions":[1E0,7.24E1,1E0,8.641443E-1,3E0,5.958619E-1,2.5215828E-1,7.0289236E-1,3.8606715E-1],"split_indices":[19,23,13,0,41,0,0,0,0],"split_type":[0,0,0,0,0,0,0,0,0],"sum_hessian":[4.200129E1,2.760668E1,1.4394608E1,1.8645855E1,8.960826E0,1.3288188E1,1.1064196E0,7.065662E0,1.8951637E0],"tree_param":{"num_deleted":"0","num_feature":"47","num_nodes":"9","size_leaf_vector":"0"}},{"base_weights":[1.785078E1,4.7832322E-1,3.5243785E-1],"categories":[],"categories_nodes":[],"categories_segments":[],"categories_sizes":[],"default_left":[0,0,0],"id":1,"left_children":[1,-1,-1],"loss_changes":[1.18396484E2,0E0,0E0],"parents":[2147483647,0,0],"right_children":[2,-1,-1],"split_conditions":[1E0,4.7832322E-1,3.5243785E-1],"split_indices":[27,0,0],"split_type":[0,0,0],"sum_hessian":[6.644846E1,5.4747143E1,1.1701324E1],"tree_param":{"num_deleted":"0","num_feature":"47","num_nodes":"3","size_leaf_vector":"0"}},{"base_weights":[1.3048946E1,1.3140713E1,1.16827294E-1,1.3531206E1,1.0639681E1,3.5428232E-1,2.577529E-1,2.8921086E-1,1.5727931E-1],"categories":[],"categories_nodes":[],"categories_segments":[],"categories_sizes":[],"default_left":[0,0,0,0,0,0,0,0,0],"id":2,"left_children":[1,3,-1,5,7,-1,-1,-1,-1],"loss_changes":[4.3720703E1,2.8635742E1,0E0,1.5005859E1,1.1067993E1,0E0,0E0,0E0,0E0],"parents":[2147483647,0,0,1,1,3,3,4,4],"right_children":[2,4,-1,6,8,-1,-1,-1,-1],"split_conditions":[1E0,1E0,1.16827294E-1,1E0,7.94E1,3.5428232E-1,2.577529E-1,2.8921086E-1,1.5727931E-1],"split_indices":[7,27,0,10,23,0,0,0,0],"split_type":[0,0,0,0,0,0,0,0,0],"sum_hessian":[8.569659E1,8.456508E1,1.131506E0,7.167297E1,1.2892106E1,6.55052E1,6.1677704E0,1.0808809E1,2.0832975E0],"tree_param":{"num_deleted":"0","num_feature":"47","num_nodes":"9","size_leaf_vector":"0"}},{"base_weights":[1.0940828E1,2.8269342E-1,6.7300553E0,2.0365816E-1,8.596532E-2],"categories":[],"categories_nodes":[],"categories_segments":[],"categories_sizes":[],"default_left":[0,0,0,0,0],"id":3,"left_children":[1,-1,3,-1,-1],"loss_changes":[2.2714844E0,0E0,7.1060944E-1,0E0,0E0],"parents":[2147483647,0,0,2,2],"right_children":[2,-1,4,-1,-1],"split_conditions":[2E0,2.8269342E-1,7.32E1,2.0365816E-1,8.596532E-2],"split_indices":[10,0,23,0,0],"split_type":[0,0,0,0,0],"sum_hessian":[1.0339921E2,1.0108609E2,2.3131194E0,1.3090432E0,1.0040761E0],"tree_param":{"num_deleted":"0","num_feature":"47","num_nodes":"5","size_leaf_vector":"0"}},{"base_weights":[8.886054E0,8.93082E0,6.5553024E-2,1.699446E-1,2.3282035E-1],"categories":[],"categories_nodes":[],"categories_segments":[],"categories_sizes":[],"default_left":[0,0,0,0,0],"id":4,"left_children":[1,3,-1,-1,-1],"loss_changes":[2.5820312E1,1.6198242E1,0E0,0E0,0E0],"parents":[2147483647,0,0,1,1],"right_children":[2,4,-1,-1,-1],"split_conditions":[1E0,-3E0,6.5553024E-2,1.699446E-1,2.3282035E-1],"split_indices":[7,43,0,0,0],"split_type":[0,0,0,0,0],"sum_hessian":[1.2339523E2,1.22358475E2,1.0367597E0,7.949327E0,1.1440915E2],"tree_param":{"num_deleted":"0","num_feature":"47","num_nodes":"5","size_leaf_vector":"0"}},{"base_weights":[7.4930754E0,7.668596E0,6.163206E0,1.9942787E-1,5.749951E0,6.469441E0,9.610457E-2,8.660147E-2,1.6619271E-1,6.653914E-2,6.706367E0,1.820825E-1,1.19359836E-1],"categories":[],"categories_nodes":[],"categories_segments":[],"categories_sizes":[],"default_left":[0,0,0,0,0,0,0,0,0,0,0,0,0],"id":5,"left_children":[1,3,5,-1,7,9,-1,-1,-1,-1,11,-1,-1],"loss_changes":[1.5364746E1,6.6245117E0,4.447632E0,0E0,4.6759033E0,7.7177734E0,0E0,0E0,0E0,0E0,3.154663E0,0E0,0E0],"parents":[2147483647,0,0,1,1,2,2,4,4,5,5,10,10],"right_children":[2,4,6,-1,8,10,-1,-1,-1,-1,12,-1,-1],"split_conditions":[7.93E1,1E0,1E0,1.9942787E-1,-2.8E0,-3.3E0,9.610457E-2,8.660147E-2,1.6619271E-1,6.653914E-2,1E0,1.820825E-1,1.19359836E-1],"split_indices":[23,28,3,0,42,43,0,0,0,0,32,0,0],"split_type":[0,0,0,0,0,0,0,0,0,0,0,0,0],"sum_hessian":[1.4207542E2,1.23853905E2,1.822152E1,1.1662961E2,7.224303E0,1.55755825E1,2.6459372E0,2.217853E0,5.0064497E0,1.1823276E0,1.4393255E1,1.197276E1,2.420495E0],"tree_param":{"num_deleted":"0","num_feature":"47","num_nodes":"13","size_leaf_vector":"0"}},{"base_weights":[6.894173E0,6.7524046E-2,6.9323444E0,6.8043804E0,2.198366E-1,1.7944065E-1,1.5394606E-1],"categories":[],"categories_nodes":[],"categories_segments":[],"categories_sizes":[],"default_left":[0,0,0,0,0,0,0],"id":6,"left_children":[1,-1,3,5,-1,-1,-1],"loss_changes":[1.6349121E1,0E0,8.297852E0,4.39209E0,0E0,0E0,0E0],"parents":[2147483647,0,0,2,2,3,3],"right_children":[2,-1,4,6,-1,-1,-1],"split_conditions":[-3.4E0,6.7524046E-2,1E0,7.61E1,2.198366E-1,1.7944065E-1,1.5394606E-1],"split_indices":[43,0,37,23,0,0,0],"split_type":[0,0,0,0,0,0,0],"sum_hessian":[1.4505931E2,1.5460172E0,1.435133E2,1.3493405E2,8.579248E0,1.0737615E2,2.7557896E1],"tree_param":{"num_deleted":"0","num_feature":"47","num_nodes":"7","size_leaf_vector":"0"}},{"base_weights":[6.3503537E0,6.4110146E0,1.03273466E-1,1.6611348E-1,1.1704399E-1],"categories":[],"categories_nodes":[],"categories_segments":[],"categories_sizes":[],"default_left":[0,0,0,0,0],"id":7,"left_children":[1,3,-1,-1,-1],"loss_changes":[1.2066895E1,5.255371E0,0E0,0E0,0E0],"parents":[2147483647,0,0,1,1],"right_children":[2,4,-1,-1,-1],"split_conditions":[1E0,1E0,1.03273466E-1,1.6611348E-1,1.1704399E-1],"split_indices":[11,8,0,0,0],"split_type":[0,0,0,0,0],"sum_hessian":[1.5548346E2,1.5084561E2,4.63785E0,1.4521931E2,5.626292E0],"tree_param":{"num_deleted":"0","num_feature":"47","num_nodes":"5","size_leaf_vector":"0"}},{"base_weights":[5.6748867E0,6.4448796E-2,1.460689E-1],"categories":[],"categories_nodes":[],"categories_segments":[],"categories_sizes":[],"default_left":[0,0,0],"id":8,"left_children":[1,-1,-1],"loss_changes":[2.2978516E0,0E0,0E0],"parents":[2147483647,0,0],"right_children":[2,-1,-1],"split_conditions":[-3.8E0,6.4448796E-2,1.460689E-1],"split_indices":[44,0,0],"split_type":[0,0,0],"sum_hessian":[1.7503929E2,1.1287513E0,1.7391055E2],"tree_param":{"num_deleted":"0","num_feature":"47","num_nodes":"3","size_leaf_vector":"0"}},{"base_weights":[5.258018E0,1.3923015E-1,1.2623104E-1],"categories":[],"categories_nodes":[],"categories_segments":[],"categories_sizes":[],"default_left":[0,0,0],"id":9,"left_children":[1,-1,-1],"loss_changes":[6.3476562E-3,0E0,0E0],"parents":[2147483647,0,0],"right_children":[2,-1,-1],"split_conditions":[1E0,1.3923015E-1,1.2623104E-1],"split_indices":[24,0,0],"split_type":[0,0,0],"sum_hessian":[1.779949E2,1.1601664E2,6.197826E1],"tree_param":{"num_deleted":"0","num_feature":"47","num_nodes":"3","size_leaf_vector":"0"}},{"base_weights":[4.973891E0,1.280572E-1,6.9782294E-2],"categories":[],"categories_nodes":[],"categories_segments":[],"categories_sizes":[],"default_left":[0,0,0],"id":10,"left_children":[1,-1,-1],"loss_changes":[5.7177734E-1,0E0,0E0],"parents":[2147483647,0,0],"right_children":[2,-1,-1],"split_conditions":[8.79E1,1.280572E-1,6.9782294E-2],"split_indices":[23,0,0],"split_type":[0,0,0],"sum_hessian":[1.8842018E2,1.8676573E2,1.6544453E0],"tree_param":{"num_deleted":"0","num_feature":"47","num_nodes":"3","size_leaf_vector":"0"}},{"base_weights":[4.6095066E0,4.85967E0,4.3564878E0,1.2665722E-1,8.664245E-2,1.1302857E-1,3.038449E0,9.6517995E-2,4.3354336E-2],"categories":[],"categories_nodes":[],"categories_segments":[],"categories_sizes":[],"default_left":[0,0,0,0,0,0,0,0,0],"id":11,"left_children":[1,3,5,-1,-1,-1,7,-1,-1],"loss_changes":[4.7006836E0,4.1933594E0,1.0834961E0,0E0,0E0,0E0,2.1879044E0,0E0,0E0],"parents":[2147483647,0,0,1,1,2,2,6,6],"right_children":[2,4,6,-1,-1,-1,8,-1,-1],"split_conditions":[1E0,1E0,1E0,1.2665722E-1,8.664245E-2,1.1302857E-1,2.4E1,9.6517995E-2,4.3354336E-2],"split_indices":[41,10,8,0,0,0,1,0,0],"split_type":[0,0,0,0,0,0,0,0,0],"sum_hessian":[1.9956004E2,9.668424E1,1.0287581E2,9.121666E1,5.46758E0,9.847977E1,4.396038E0,2.3743703E0,2.0216675E0],"tree_param":{"num_deleted":"0","num_feature":"47","num_nodes":"9","size_leaf_vector":"0"}},{"base_weights":[4.229703E0,4.332463E0,3.5340743E0,4.3856487E0,3.505279E0,9.576109E-2,2.1085815E0,1.14875436E-1,3.9015126E0,1.8958782E0,3.7657192E0,3.5261544E-3,2.6706204E0,1.02962926E-1,5.8594216E-2,6.4403534E-2,1.5029851E-2,1.0456486E-1,1.890913E-2,3.1162227E-2,7.9291314E-2],"categories":[],"categories_nodes":[],"categories_segments":[],"categories_sizes":[],"default_left":[0,0,0,0,0,0,0,0,0,0,0,0,0,0,0,0,0,0,0,0,0],"id":12,"left_children":[1,3,5,7,9,-1,11,-1,13,15,17,-1,19,-1,-1,-1,-1,-1,-1,-1,-1],"loss_changes":[8.9921875E0,2.0012207E0,4.9585266E0,5.4003906E-1,2.5303192E0,0E0,4.5978737E0,0E0,1.483551E0,1.4564991E0,8.402084E0,0E0,5.2778435E-1,0E0,0E0,0E0,0E0,0E0,0E0,0E0,0E0],"parents":[2147483647,0,0,1,1,2,2,3,3,4,4,6,6,8,8,9,9,10,10,12,12],"right_children":[2,4,6,8,10,-1,12,-1,14,16,18,-1,20,-1,-1,-1,-1,-1,-1,-1,-1],"split_conditions":[1E0,1E0,8.04E1,1.321E0,1.117E0,9.576109E-2,8.13E1,1.14875436E-1,7.95E1,1E0,7.94E1,3.5261544E-3,1.166E0,1.02962926E-1,5.8594216E-2,6.4403534E-2,1.5029851E-2,1.0456486E-1,1.890913E-2,3.1162227E-2,7.9291314E-2],"split_indices":[27,4,23,45,45,0,23,0,23,8,23,0,45,0,0,0,0,0,0,0,0],"split_type":[0,0,0,0,0,0,0,0,0,0,0,0,0,0,0,0,0,0,0,0,0],"sum_hessian":[2.0682016E2,1.7834901E2,2.8471146E1,1.6592863E2,1.2420386E1,2.4429947E1,4.041199E0,1.3742166E2,2.8506962E1,2.2231076E0,1.0197279E1,1.0445213E0,2.9966776E0,2.6126717E1,2.3802438E0,1.2226378E0,1.0004697E0,9.107721E0,1.0895579E0,1.0545025E0,1.9421753E0],"tree_param":{"num_deleted":"0","num_feature":"47","num_nodes":"21","size_leaf_vector":"0"}},{"base_weights":[4.0189424E0,4.3473425E0,3.8514895E0,6.9545455E-2,1.1277915E-1,3.8754249E0,2.2637994E0,3.9121437E0,7.263663E-2,7.74419E-2,1.293223E-2,1.0271817E-1,8.715816E-2],"categories":[],"categories_nodes":[],"categories_segments":[],"categories_sizes":[],"default_left":[0,0,0,0,0,0,0,0,0,0,0,0,0],"id":13,"left_children":[1,3,5,-1,-1,7,9,11,-1,-1,-1,-1,-1],"loss_changes":[5.1694336E0,3.408203E-1,1.8996582E0,0E0,0E0,1.0546875E0,3.3850346E0,9.451904E-1,0E0,0E0,0E0,0E0,0E0],"parents":[2147483647,0,0,1,1,2,2,5,5,6,6,7,7],"right_children":[2,4,6,-1,-1,8,10,12,-1,-1,-1,-1,-1],"split_conditions":[6.39E1,1.037E0,1E0,6.9545455E-2,1.1277915E-1,3.33E1,1.222E0,1E0,7.263663E-2,7.74419E-2,1.293223E-2,1.0271817E-1,8.715816E-2],"split_indices":[23,45,38,0,0,1,45,27,0,0,0,0,0],"split_type":[0,0,0,0,0,0,0,0,0,0,0,0,0],"sum_hessian":[2.0769727E2,6.674805E1,1.4094922E2,2.479043E0,6.4269005E1,1.382531E2,2.6961133E0,1.3246794E2,5.785161E0,1.6562192E0,1.0398941E0,1.10738464E2,2.1729477E1],"tree_param":{"num_deleted":"0","num_feature":"47","num_nodes":"13","size_leaf_vector":"0"}},{"base_weights":[3.8895965E0,1.02205016E-1,3.5969656E0,9.4577186E-2,2.0565681E0,9.882899E-1,8.510948E-2,-0E0,4.5251504E-2],"categories":[],"categories_nodes":[],"categories_segments":[],"categories_sizes":[],"default_left":[0,0,0,0,0,0,0,0,0],"id":14,"left_children":[1,-1,3,-1,5,7,-1,-1,-1],"loss_changes":[3.3276367E-1,0E0,4.375061E0,0E0,3.9867363E0,2.3678577E0,0E0,0E0,0E0],"parents":[2147483647,0,0,2,2,4,4,5,5],"right_children":[2,-1,4,-1,6,8,-1,-1,-1],"split_conditions":[2E0,1.02205016E-1,1E0,9.4577186E-2,-2.6E0,3E0,8.510948E-2,-0E0,4.5251504E-2],"split_indices":[41,0,4,0,46,5,0,0,0],"split_type":[0,0,0,0,0,0,0,0,0],"sum_hessian":[2.1438817E2,1.5952585E2,5.486232E1,5.1372734E1,3.489587E0,2.29828E0,1.191307E0,1.126847E0,1.171433E0],"tree_param":{"num_deleted":"0","num_feature":"47","num_nodes":"9","size_leaf_vector":"0"}},{"base_weights":[3.6314037E0,3.7435298E0,3.3151586E0,3.7624304E0,2.1270876E0,3.3675382E0,1.475658E0,9.727115E-2,2.7250757E0,6.387834E-2,2.6163166E-2,3.4126291E0,4.011451E-2,1.415473E-2,4.8840404E-2,2.4320973E-2,7.848413E-2,8.887868E-2,4.6889894E-2],"categories":[],"categories_nodes":[],"categories_segments":[],"categories_sizes":[],"default_left":[0,0,0,0,0,0,0,0,0,0,0,0,0,0,0,0,0,0,0],"id":15,"left_children":[1,3,5,7,9,11,13,-1,15,-1,-1,17,-1,-1,-1,-1,-1,-1,-1],"loss_changes":[3.1171875E0,1.6809082E0,3.8237305E0,2.7856445E-1,7.3124886E-2,2.6096191E0,5.0488424E-1,0E0,1.8854599E0,0E0,0E0,1.9192505E0,0E0,0E0,0E0,0E0,0E0,0E0,0E0],"parents":[2147483647,0,0,1,1,2,2,3,3,4,4,5,5,6,6,8,8,11,11],"right_children":[2,4,6,8,10,12,14,-1,16,-1,-1,18,-1,-1,-1,-1,-1,-1,-1],"split_conditions":[2E0,1E1,1E0,1E0,6.96E1,1E0,-2.5E0,9.727115E-2,-2.8E0,6.387834E-2,2.6163166E-2,1E0,4.011451E-2,1.415473E-2,4.8840404E-2,2.4320973E-2,7.848413E-2,8.887868E-2,4.6889894E-2],"split_indices":[41,5,14,8,23,25,43,0,46,0,0,11,0,0,0,0,0,0,0],"split_type":[0,0,0,0,0,0,0,0,0,0,0,0,0,0,0,0,0,0,0],"sum_hessian":[2.1965997E2,1.5889687E2,6.0763096E1,1.5649893E2,2.3979445E0,5.8718147E1,2.044949E0,1.5156017E2,4.9387608E0,1.3795717E0,1.0183728E0,5.690018E1,1.8179681E0,1.0006764E0,1.0442728E0,1.0577621E0,3.8809986E0,5.4690434E1,2.209745E0],"tree_param":{"num_deleted":"0","num_feature":"47","num_nodes":"19","size_leaf_vector":"0"}},{"base_weights":[3.482124E0,2.0401976E0,3.4983335E0,2.028438E-2,6.1363883E-2,3.4493535E0,1.05480656E-1,3.53172E0,3.1887014E0,4.544749E-2,9.111595E-2,2.0532975E-2,8.29279E-2],"categories":[],"categories_nodes":[],"categories_segments":[],"categories_sizes":[],"default_left":[0,0,0,0,0,0,0,0,0,0,0,0,0],"id":16,"left_children":[1,3,5,-1,-1,7,-1,9,11,-1,-1,-1,-1],"loss_changes":[2.328125E0,6.930847E-1,1.2568359E0,0E0,0E0,1.3769531E-1,0E0,2.03833E0,4.024292E0,0E0,0E0,0E0,0E0],"parents":[2147483647,0,0,1,1,2,2,5,5,7,7,8,8],"right_children":[2,4,6,-1,-1,8,-1,10,12,-1,-1,-1,-1],"split_conditions":[9.63E-1,6.61E1,1E0,2.028438E-2,6.1363883E-2,2E0,1.05480656E-1,-3.4E0,5.32E1,4.544749E-2,9.111595E-2,2.0532975E-2,8.29279E-2],"split_indices":[45,23,37,0,0,41,0,43,23,0,0,0,0],"split_type":[0,0,0,0,0,0,0,0,0,0,0,0,0],"sum_hessian":[2.2079707E2,3.0611012E0,2.1773598E2,1.0070798E0,2.0540214E0,2.0403859E2,1.3697378E1,1.5113536E2,5.2903236E1,1.9029156E0,1.4923244E2,1.0753444E0,5.1827892E1],"tree_param":{"num_deleted":"0","num_feature":"47","num_nodes":"13","size_leaf_vector":"0"}},{"base_weights":[3.3253276E0,3.3393936E0,2.1437185E0,8.589723E-2,3.5630416E-2,2.61143E-2,6.69359E-2],"categories":[],"categories_nodes":[],"categories_segments":[],"categories_sizes":[],"default_left":[0,0,0,0,0,0,0],"id":17,"left_children":[1,3,5,-1,-1,-1,-1],"loss_changes":[9.8876953E-1,8.000488E-1,9.334793E-1,0E0,0E0,0E0,0E0],"parents":[2147483647,0,0,1,1,2,2],"right_children":[2,4,6,-1,-1,-1,-1],"split_conditions":[1E0,1.6E1,-2.3E0,8.589723E-2,3.5630416E-2,2.61143E-2,6.69359E-2],"split_indices":[9,5,46,0,0,0,0],"split_type":[0,0,0,0,0,0,0],"sum_hessian":[2.2876773E2,2.2530484E2,3.4628897E0,2.2425847E2,1.0463758E0,1.4295441E0,2.0333455E0],"tree_param":{"num_deleted":"0","num_feature":"47","num_nodes":"7","size_leaf_vector":"0"}},{"base_weights":[3.2159605E0,3.2859638E0,2.8672793E0,8.4739454E-2,3.5110973E-2,3.4373954E-2,7.458158E-2],"categories":[],"categories_nodes":[],"categories_segments":[],"categories_sizes":[],"default_left":[0,0,0,0,0,0,0],"id":18,"left_children":[1,3,5,-1,-1,-1,-1],"loss_changes":[2.1298828E0,3.461914E0,8.03833E-1,0E0,0E0,0E0,0E0],"parents":[2147483647,0,0,1,1,2,2],"right_children":[2,4,6,-1,-1,-1,-1],"split_conditions":[7.71E1,1E0,-3.9E0,8.4739454E-2,3.5110973E-2,3.4373954E-2,7.458158E-2],"split_indices":[23,7,42,0,0,0,0],"split_type":[0,0,0,0,0,0,0],"sum_hessian":[2.331765E2,1.9128677E2,4.188973E1,1.8951482E2,1.7719576E0,1.4086667E0,4.048106E1],"tree_param":{"num_deleted":"0","num_feature":"47","num_nodes":"7","size_leaf_vector":"0"}},{"base_weights":[3.0918531E0,3.108304E0,2.1642601E0,8.017854E-2,2.1868248E0,2.3312772E-2,6.739467E-2,6.639469E-2,1.5582056E-2],"categories":[],"categories_nodes":[],"categories_segments":[],"categories_sizes":[],"default_left":[0,0,0,0,0,0,0,0,0],"id":19,"left_children":[1,3,5,-1,7,-1,-1,-1,-1],"loss_changes":[9.7387695E-1,4.4555664E-1,2.1816673E0,0E0,2.420002E0,0E0,0E0,0E0,0E0],"parents":[2147483647,0,0,1,1,2,2,4,4],"right_children":[2,4,6,-1,8,-1,-1,-1,-1],"split_conditions":[6E0,1.446E0,6.11E1,8.017854E-2,1E0,2.3312772E-2,6.739467E-2,6.639469E-2,1.5582056E-2],"split_indices":[41,45,23,0,19,0,0,0,0],"split_type":[0,0,0,0,0,0,0,0,0],"sum_hessian":[2.3575636E2,2.3066167E2,5.0946994E0,2.2605605E2,4.6056094E0,1.731849E0,3.3628507E0,3.4290028E0,1.1766067E0],"tree_param":{"num_deleted":"0","num_feature":"47","num_nodes":"9","size_leaf_vector":"0"}},{"base_weights":[3.0539994E0,1.5768921E0,3.0663836E0,5.960617E-2,1.2644329E-2,2.8058698E0,3.1258624E0,7.5359404E-2,5.960617E-2,3.1387465E0,5.960617E-2,8.214108E-2,7.1654506E-2],"categories":[],"categories_nodes":[],"categories_segments":[],"categories_sizes":[],"default_left":[0,0,0,0,0,0,0,0,0,0,0,0,0],"id":20,"left_children":[1,3,5,-1,-1,7,9,-1,-1,11,-1,-1,-1],"loss_changes":[2.2629395E0,1.8695655E0,2.4023438E-1,0E0,0E0,4.75708E-1,3.1958008E-1,0E0,0E0,4.30542E-1,0E0,0E0,0E0],"parents":[2147483647,0,0,1,1,2,2,5,5,6,6,9,9],"right_children":[2,4,6,-1,-1,8,10,-1,-1,12,-1,-1,-1],"split_conditions":[-4.2E0,1.113E0,1.172E0,5.960617E-2,1.2644329E-2,1E0,1E0,7.5359404E-2,5.960617E-2,7.69E1,5.960617E-2,8.214108E-2,7.1654506E-2],"split_indices":[46,45,45,0,0,39,7,0,0,23,0,0,0],"split_type":[0,0,0,0,0,0,0,0,0,0,0,0,0],"sum_hessian":[2.3161534E2,2.4017634E0,2.2921358E2,1.0804076E0,1.3213557E0,4.631928E1,1.828943E2,3.5271843E1,1.1047436E1,1.8066771E2,2.22659E0,1.5095793E2,2.9709782E1],"tree_param":{"num_deleted":"0","num_feature":"47","num_nodes":"13","size_leaf_vector":"0"}},{"base_weights":[2.9296286E0,2.9415872E0,1.8604593E0,7.718033E-2,6.9418885E-2,5.7025053E-2,2.5780192E-2],"categories":[],"categories_nodes":[],"categories_segments":[],"categories_sizes":[],"default_left":[0,0,0,0,0,0,0],"id":21,"left_children":[1,3,5,-1,-1,-1,-1],"loss_changes":[9.206543E-1,5.895996E-1,2.811966E-1,0E0,0E0,0E0,0E0],"parents":[2147483647,0,0,1,1,2,2],"right_children":[2,4,6,-1,-1,-1,-1],"split_conditions":[8E0,7.54E1,1.253E0,7.718033E-2,6.9418885E-2,5.7025053E-2,2.5780192E-2],"split_indices":[5,23,45,0,0,0,0],"split_type":[0,0,0,0,0,0,0],"sum_hessian":[2.4169098E2,2.3826334E2,3.4276376E0,1.83571E2,5.469234E1,1.898531E0,1.5291065E0],"tree_param":{"num_deleted":"0","num_feature":"47","num_nodes":"7","size_leaf_vector":"0"}},{"base_weights":[2.7774427E0,2.3873332E0,7.270566E-2,4.836444E-3,2.4820774E0,2.5989032E0,1.4201652E0,6.954777E-2,4.7986E-2,4.7806013E-2,3.428088E-2],"categories":[],"categories_nodes":[],"categories_segments":[],"categories_sizes":[],"default_left":[0,0,0,0,0,0,0,0,0,0,0],"id":22,"left_children":[1,3,-1,-1,5,7,9,-1,-1,-1,-1],"loss_changes":[2.5280762E0,6.273178E0,0E0,0E0,2.3137054E0,2.0275879E-1,1.7885208E-1,0E0,0E0,0E0,0E0],"parents":[2147483647,0,0,1,1,4,4,5,5,6,6],"right_children":[2,4,-1,-1,6,8,10,-1,-1,-1,-1],"split_conditions":[1.128E0,-3.3E0,7.270566E-2,4.836444E-3,1E0,1E0,1E0,6.954777E-2,4.7986E-2,4.7806013E-2,3.428088E-2],"split_indices":[45,44,0,0,2,39,3,0,0,0,0],"split_type":[0,0,0,0,0,0,0,0,0,0,0],"sum_hessian":[2.4012341E2,3.1709518E1,2.084139E2,1.4050053E0,3.0304514E1,2.671612E1,3.5883944E0,2.2199594E1,4.5165253E0,2.4285927E0,1.1598017E0],"tree_param":{"num_deleted":"0","num_feature":"47","num_nodes":"11","size_leaf_vector":"0"}},{"base_weights":[2.70029E0,9.852176E-1,2.712511E0,4.426471E-3,3.71064E-2,2.755696E0,5.955029E-2,2.8302128E0,2.5322757E0,6.646819E-2,7.46754E-2,5.252022E-2,6.897611E-2],"categories":[],"categories_nodes":[],"categories_segments":[],"categories_sizes":[],"default_left":[0,0,0,0,0,0,0,0,0,0,0,0,0],"id":23,"left_children":[1,3,5,-1,-1,7,-1,9,11,-1,-1,-1,-1],"loss_changes":[4.149658E0,7.8633857E-1,1.8522949E0,0E0,0E0,1.046875E0,0E0,2.841797E-1,2.4317627E0,0E0,0E0,0E0,0E0],"parents":[2147483647,0,0,1,1,2,2,5,5,7,7,8,8],"right_children":[2,4,6,-1,-1,8,-1,10,12,-1,-1,-1,-1],"split_conditions":[-3.7E0,-3.7E0,1E0,4.426471E-3,3.71064E-2,2E0,5.955029E-2,1.199E0,-2.6E0,6.646819E-2,7.46754E-2,5.252022E-2,6.897611E-2],"split_indices":[43,42,15,0,0,41,0,45,42,0,0,0,0],"split_type":[0,0,0,0,0,0,0,0,0,0,0,0,0],"sum_hessian":[2.5460083E2,2.0831525E0,2.5251768E2,1.0275961E0,1.0555565E0,2.2522823E2,2.728946E1,1.6523376E2,5.999445E1,4.399181E1,1.2124196E2,1.5908725E1,4.4085724E1],"tree_param":{"num_deleted":"0","num_feature":"47","num_nodes":"13","size_leaf_vector":"0"}},{"base_weights":[2.6953175E0,6.8090454E-2,8.044444E-2],"categories":[],"categories_nodes":[],"categories_segments":[],"categories_sizes":[],"default_left":[0,0,0],"id":24,"left_children":[1,-1,-1],"loss_changes":[1.5565186E0,0E0,0E0],"parents":[2147483647,0,0],"right_children":[2,-1,-1],"split_conditions":[1E0,6.8090454E-2,8.044444E-2],"split_indices":[37,0,0],"split_type":[0,0,0],"sum_hessian":[2.4444894E2,2.2513797E2,1.9310974E1],"tree_param":{"num_deleted":"0","num_feature":"47","num_nodes":"3","size_leaf_vector":"0"}},{"base_weights":[2.5521688E0,2.6042619E0,2.2376719E0,2.6443288E0,2.2708268E0,2.3263016E0,1.1676438E0,3.3180296E-2,6.809214E-2,2.3205192E0,2.1624513E-2,6.0605597E-2,2.5022965E-2,4.6150114E-2,1.0191132E-2,6.070756E-2,2.5388045E-2],"categories":[],"categories_nodes":[],"categories_segments":[],"categories_sizes":[],"default_left":[0,0,0,0,0,0,0,0,0,0,0,0,0,0,0,0,0],"id":25,"left_children":[1,3,5,7,9,11,13,-1,-1,15,-1,-1,-1,-1,-1,-1,-1],"loss_changes":[1.5878906E0,3.3972168E-1,2.282959E0,3.9453125E-1,8.195801E-1,5.0546265E-1,1.4657965E0,0E0,0E0,3.2352448E-1,0E0,0E0,0E0,0E0,0E0,0E0,0E0],"parents":[2147483647,0,0,1,1,2,2,3,3,4,4,5,5,6,6,9,9],"right_children":[2,4,6,8,10,12,14,-1,-1,16,-1,-1,-1,-1,-1,-1,-1],"split_conditions":[1E0,1E0,8.25E1,-4.2E0,1E0,1E0,2.23E1,3.3180296E-2,6.809214E-2,8.04E1,2.1624513E-2,6.0605597E-2,2.5022965E-2,4.6150114E-2,1.0191132E-2,6.070756E-2,2.5388045E-2],"split_indices":[21,15,23,42,25,25,1,0,0,23,0,0,0,0,0,0,0],"split_type":[0,0,0,0,0,0,0,0,0,0,0,0,0,0,0,0,0],"sum_hessian":[2.3197598E2,1.9635974E2,3.561623E1,1.726712E2,2.3688536E1,3.2387825E1,3.2284055E0,1.436421E0,1.7123479E2,2.2589777E1,1.0987587E0,3.1232822E1,1.1550024E0,1.4210995E0,1.8073059E0,2.150349E1,1.0862865E0],"tree_param":{"num_deleted":"0","num_feature":"47","num_nodes":"17","size_leaf_vector":"0"}},{"base_weights":[2.4837518E0,2.504619E0,1.2038995E0,2.5334451E0,1.9993069E0,4.784066E-2,7.404503E-1,2.5237078E-2,6.5176874E-2,5.9143496E-1,2.269646E0,2.6229678E-2,5.703719E-3,2.430055E-2,-0E0,6.2298592E-2,3.4968924E-2],"categories":[],"categories_nodes":[],"categories_segments":[],"categories_sizes":[],"default_left":[0,0,0,0,0,0,0,0,0,0,0,0,0,0,0,0,0],"id":26,"left_children":[1,3,5,7,9,-1,11,-1,-1,13,15,-1,-1,-1,-1,-1,-1],"loss_changes":[5.2164307E0,1.5206299E0,9.4261646E-1,6.866455E-1,5.0290184E0,0E0,3.9653707E-1,0E0,0E0,7.120887E-1,4.223404E-1,0E0,0E0,0E0,0E0,0E0,0E0],"parents":[2147483647,0,0,1,1,2,2,3,3,4,4,6,6,9,9,10,10],"right_children":[2,4,6,8,10,-1,12,-1,-1,14,16,-1,-1,-1,-1,-1,-1],"split_conditions":[3.66E1,4E0,6.19E1,-4E0,6.05E1,4.784066E-2,1E0,2.5237078E-2,6.5176874E-2,5.99E1,8.17E1,2.6229678E-2,5.703719E-3,2.430055E-2,-0E0,6.2298592E-2,3.4968924E-2],"split_indices":[1,41,23,44,23,0,19,0,0,23,23,0,0,0,0,0,0],"split_type":[0,0,0,0,0,0,0,0,0,0,0,0,0,0,0,0,0],"sum_hessian":[2.4264502E2,2.3831247E2,4.3325586E0,2.2381508E2,1.449739E1,1.2200186E0,3.1125402E0,1.0543971E0,2.2276068E2,2.5950065E0,1.1902384E1,1.6411961E0,1.471344E0,1.4903325E0,1.1046739E0,9.507187E0,2.3951962E0],"tree_param":{"num_deleted":"0","num_feature":"47","num_nodes":"17","size_leaf_vector":"0"}},{"base_weights":[2.4151657E0,2.5671415E0,2.3078823E0,6.7135625E-2,2.0036373E0,2.320251E0,2.3473194E-2,1.610075E-2,2.1329467E0,1.3765608E0,2.3372395E0,5.8378477E-2,2.6704518E-2,5.2880514E-2,-1.2333129E-3,5.858201E-2,6.756721E-2],"categories":[],"categories_nodes":[],"categories_segments":[],"categories_sizes":[],"default_left":[0,0,0,0,0,0,0,0,0,0,0,0,0,0,0,0,0],"id":27,"left_children":[1,3,5,-1,7,9,-1,-1,11,13,15,-1,-1,-1,-1,-1,-1],"loss_changes":[1.829834E0,6.394043E-1,1.630188E0,0E0,1.0538406E0,1.062439E0,0E0,0E0,3.102646E-1,3.97859E0,1.3824463E-1,0E0,0E0,0E0,0E0,0E0,0E0],"parents":[2147483647,0,0,1,1,2,2,4,4,5,5,8,8,9,9,10,10],"right_children":[2,4,6,-1,8,10,-1,-1,12,14,16,-1,-1,-1,-1,-1,-1],"split_conditions":[6.58E1,1E0,7E0,6.7135625E-2,1.152E0,6.61E1,2.3473194E-2,1.610075E-2,1E0,1E0,-7E-1,5.8378477E-2,2.6704518E-2,5.2880514E-2,-1.2333129E-3,5.858201E-2,6.756721E-2],"split_indices":[23,14,41,0,45,23,0,0,21,40,44,0,0,0,0,0,0],"split_type":[0,0,0,0,0,0,0,0,0,0,0,0,0,0,0,0,0],"sum_hessian":[2.4805873E2,9.865209E1,1.4940665E2,8.949922E1,9.152868E0,1.47765E2,1.6416358E0,1.0490811E0,8.103787E0,3.2745788E0,1.4449042E2,6.728003E0,1.3757843E0,2.1532273E0,1.1213516E0,1.2466521E2,1.9825218E1],"tree_param":{"num_deleted":"0","num_feature":"47","num_nodes":"17","size_leaf_vector":"0"}},{"base_weights":[2.4034722E0,2.4345815E0,2.0909934E0,2.5041766E0,2.289733E0,2.3394685E0,1.257322E0,6.460079E-2,3.322388E-2,1.364118E0,5.926774E-2,6.225168E-2,1.412086E0,-1.4675248E-3,1.6853325E0,1.3397312E-2,4.390033E-2,4.7857046E-2,1.4329394E-2,5.474193E-2,2.918961E-2],"categories":[],"categories_nodes":[],"categories_segments":[],"categories_sizes":[],"default_left":[0,0,0,0,0,0,0,0,0,0,0,0,0,0,0,0,0,0,0,0,0],"id":28,"left_children":[1,3,5,7,9,11,13,-1,-1,15,-1,-1,17,-1,19,-1,-1,-1,-1,-1,-1],"loss_changes":[4.732666E-1,9.069824E-2,4.1119995E0,7.6934814E-1,5.7678223E-2,1.2921906E-1,4.1368074E0,0E0,0E0,3.5846472E-1,0E0,0E0,5.744915E-1,0E0,3.4843826E-1,0E0,0E0,0E0,0E0,0E0,0E0],"parents":[2147483647,0,0,1,1,2,2,3,3,4,4,5,5,6,6,9,9,12,12,14,14],"right_children":[2,4,6,8,10,12,14,-1,-1,16,-1,-1,18,-1,20,-1,-1,-1,-1,-1,-1],"split_conditions":[1E0,1E0,7.38E1,2E0,-3.2E0,1E0,-2.5E0,6.460079E-2,3.322388E-2,7.01E1,5.926774E-2,6.225168E-2,1.242E0,-1.4675248E-3,2.31E1,1.3397312E-2,4.390033E-2,4.7857046E-2,1.4329394E-2,5.474193E-2,2.918961E-2],"split_indices":[15,24,23,10,43,21,43,0,0,23,0,0,45,0,1,0,0,0,0,0,0],"split_type":[0,0,0,0,0,0,0,0,0,0,0,0,0,0,0,0,0,0,0,0,0],"sum_hessian":[2.4827943E2,2.2315343E2,2.5126005E1,1.4607602E2,7.707741E1,1.8730486E1,6.3955193E0,1.4414857E2,1.9274526E0,2.1969378E0,7.488047E1,1.6488169E1,2.2423162E0,1.5866117E0,4.8089075E0,1.0080237E0,1.188914E0,1.0899756E0,1.1523407E0,1.9394543E0,2.8694534E0],"tree_param":{"num_deleted":"0","num_feature":"47","num_nodes":"21","size_leaf_vector":"0"}},{"base_weights":[2.311318E0,2.3906329E0,2.0725672E0,2.0799038E0,6.3423894E-2,2.1493523E0,1.5207411E0,2.121976E0,9.423525E-3,2.1819858E-2,2.1731472E0,3.1389296E-3,1.7734551E0,6.352629E-2,4.722937E-2,5.2152336E-2,6.649314E-2,5.1175848E-2,1.4423399E-2],"categories":[],"categories_nodes":[],"categories_segments":[],"categories_sizes":[],"default_left":[0,0,0,0,0,0,0,0,0,0,0,0,0,0,0,0,0,0,0],"id":29,"left_children":[1,3,5,7,-1,9,11,13,-1,-1,15,-1,17,-1,-1,-1,-1,-1,-1],"loss_changes":[2.8198242E0,2.5877686E0,1.4755554E0,2.4113617E0,0E0,8.954773E-1,3.1156578E0,2.180069E0,0E0,0E0,1.2870178E0,0E0,1.565422E0,0E0,0E0,0E0,0E0,0E0,0E0],"parents":[2147483647,0,0,1,1,2,2,3,3,5,5,6,6,7,7,10,10,12,12],"right_children":[2,4,6,8,-1,10,12,14,-1,-1,16,-1,18,-1,-1,-1,-1,-1,-1],"split_conditions":[7.4E1,1.2E0,1E0,3E0,6.3423894E-2,-3.4E0,7.48E1,1.138E0,9.423525E-3,2.1819858E-2,1E0,3.1389296E-3,8.09E1,6.352629E-2,4.722937E-2,5.2152336E-2,6.649314E-2,5.1175848E-2,1.4423399E-2],"split_indices":[23,45,39,40,0,44,23,45,0,0,40,0,23,0,0,0,0,0,0],"split_type":[0,0,0,0,0,0,0,0,0,0,0,0,0,0,0,0,0,0,0],"sum_hessian":[2.4777907E2,1.8309749E2,6.468158E1,3.9742916E1,1.4335457E2,5.564779E1,9.033792E0,3.863873E1,1.1041882E0,1.3333284E0,5.431446E1,1.5357646E0,7.4980273E0,1.5716978E1,2.2921751E1,4.236981E1,1.1944653E1,6.063235E0,1.4347926E0],"tree_param":{"num_deleted":"0","num_feature":"47","num_nodes":"19","size_leaf_vector":"0"}},{"base_weights":[2.2088904E0,2.31543E0,2.0023127E0,2.3541095E0,1.5202737E0,2.0253274E0,2.2799151E-3,6.072054E-2,3.2772686E-2,2.9381802E-3,4.3514818E-2,1.0212744E0,2.0776167E0,3.978076E-2,-7.54016E-3,5.5865463E-2,3.978076E-2],"categories":[],"categories_nodes":[],"categories_segments":[],"categories_sizes":[],"default_left":[0,0,0,0,0,0,0,0,0,0,0,0,0,0,0,0,0],"id":30,"left_children":[1,3,5,7,9,11,-1,-1,-1,-1,-1,13,15,-1,-1,-1,-1],"loss_changes":[3.5E0,3.3289185E0,3.4351196E0,4.7485352E-1,1.844162E0,3.4679565E0,0E0,0E0,0E0,0E0,0E0,4.887356E0,2.8361816E0,0E0,0E0,0E0,0E0],"parents":[2147483647,0,0,1,1,2,2,3,3,4,4,5,5,11,11,12,12],"right_children":[2,4,6,8,10,12,-1,-1,-1,-1,-1,14,16,-1,-1,-1,-1],"split_conditions":[7.24E1,4E0,3.9E1,1.462E0,5.7E1,-3E0,2.2799151E-3,6.072054E-2,3.2772686E-2,2.9381802E-3,4.3514818E-2,7.93E1,1E0,3.978076E-2,-7.54016E-3,5.5865463E-2,3.978076E-2],"split_indices":[23,41,1,45,23,44,0,0,0,0,0,23,39,0,0,0,0],"split_type":[0,0,0,0,0,0,0,0,0,0,0,0,0,0,0,0,0],"sum_hessian":[2.382977E2,1.5432803E2,8.396967E1,1.4633244E2,7.9955873E0,8.28922E1,1.077476E0,1.4431555E2,2.0168893E0,1.0229578E0,6.9726295E0,4.5910373E0,7.830116E1,3.0110703E0,1.579967E0,6.501168E1,1.3289483E1],"tree_param":{"num_deleted":"0","num_feature":"47","num_nodes":"17","size_leaf_vector":"0"}},{"base_weights":[2.1984243E0,5.830906E-2,1.9159081E0,1.9611769E0,1.5023645E-2,1.6772044E0,2.2342067E0,4.992485E-2,3.0915659E-2,2.9252583E-2,5.9294563E-2],"categories":[],"categories_nodes":[],"categories_segments":[],"categories_sizes":[],"default_left":[0,0,0,0,0,0,0,0,0,0,0],"id":31,"left_children":[1,-1,3,5,-1,7,9,-1,-1,-1,-1],"loss_changes":[3.2714844E0,0E0,2.5479126E0,2.4595795E0,0E0,2.4064636E0,8.843918E-1,0E0,0E0,0E0,0E0],"parents":[2147483647,0,0,2,2,3,3,5,5,6,6],"right_children":[2,-1,4,6,-1,8,10,-1,-1,-1,-1],"split_conditions":[7.66E1,5.830906E-2,7E0,8.01E1,1.5023645E-2,2E0,-3.2E0,4.992485E-2,3.0915659E-2,2.9252583E-2,5.9294563E-2],"split_indices":[23,0,41,23,0,41,42,0,0,0,0],"split_type":[0,0,0,0,0,0,0,0,0,0,0],"sum_hessian":[2.3967303E2,1.8820653E2,5.14665E1,4.9519806E1,1.9466933E0,2.578993E1,2.3729874E1,1.5579578E1,1.0210352E1,2.0126572E0,2.1717216E1],"tree_param":{"num_deleted":"0","num_feature":"47","num_nodes":"11","size_leaf_vector":"0"}},{"base_weights":[2.1268096E0,2.1560419E0,1.4205396E0,2.240047E0,1.9858716E0,-8.345807E-3,1.6267375E0,2.7340204E-2,2.252177E0,5.7748605E-2,1.8740841E0,1.8067698E0,2.9442972E-3,4.258151E-2,5.822017E-2,5.235245E-2,4.0864296E-2,3.5456587E-2,5.8015972E-2],"categories":[],"categories_nodes":[],"categories_segments":[],"categories_sizes":[],"default_left":[0,0,0,0,0,0,0,0,0,0,0,0,0,0,0,0,0,0,0],"id":32,"left_children":[1,3,5,7,9,-1,11,-1,13,-1,15,17,-1,-1,-1,-1,-1,-1,-1],"loss_changes":[3.8015137E0,1.6496582E0,4.3986073E0,1.144165E0,8.1121826E-1,0E0,2.4673119E0,0E0,5.0097656E-1,0E0,1.5287781E0,5.1854706E-1,0E0,0E0,0E0,0E0,0E0,0E0,0E0],"parents":[2147483647,0,0,1,1,2,2,3,3,4,4,6,6,8,8,10,10,11,11],"right_children":[2,4,6,8,10,-1,12,-1,14,-1,16,18,-1,-1,-1,-1,-1,-1,-1],"split_conditions":[1E0,7.25E1,1.068E0,-3.3E0,2.15E1,-8.345807E-3,1E0,2.7340204E-2,-3.9E0,5.7748605E-2,2E0,2.61E1,2.9442972E-3,4.258151E-2,5.822017E-2,5.235245E-2,4.0864296E-2,3.5456587E-2,5.8015972E-2],"split_indices":[8,23,45,44,1,0,21,0,42,0,41,1,0,0,0,0,0,0,0],"split_type":[0,0,0,0,0,0,0,0,0,0,0,0,0,0,0,0,0,0,0],"sum_hessian":[2.4315855E2,2.3260149E2,1.0557061E1,1.5222661E2,8.0374886E1,1.0350307E0,9.522031E0,1.9903612E0,1.5023624E2,2.1508095E1,5.8866787E1,8.377292E0,1.1447387E0,3.4299664E0,1.4680627E2,3.5431366E1,2.3435423E1,5.229794E0,3.1474977E0],"tree_param":{"num_deleted":"0","num_feature":"47","num_nodes":"19","size_leaf_vector":"0"}},{"base_weights":[2.1295733E0,2.1378183E0,1.9800402E-2,2.2558544E0,2.0300834E0,2.26862E0,2.6464675E-2,9.856062E-3,2.0459173E0,2.5990661E-2,5.8551222E-2,5.329078E-2,3.8456853E-2],"categories":[],"categories_nodes":[],"categories_segments":[],"categories_sizes":[],"default_left":[0,0,0,0,0,0,0,0,0,0,0,0,0],"id":33,"left_children":[1,3,-1,5,7,9,-1,-1,11,-1,-1,-1,-1],"loss_changes":[1.9075928E0,1.2995605E0,0E0,6.966553E-1,2.8682861E0,6.098633E-1,0E0,0E0,8.4350586E-1,0E0,0E0,0E0,0E0],"parents":[2147483647,0,0,1,1,3,3,4,4,5,5,8,8],"right_children":[2,4,-1,6,8,10,-1,-1,12,-1,-1,-1,-1],"split_conditions":[1E0,6.77E1,1.9800402E-2,1E0,6.78E1,-4.2E0,2.6464675E-2,9.856062E-3,1.351E0,2.5990661E-2,5.8551222E-2,5.329078E-2,3.8456853E-2],"split_indices":[7,23,0,38,23,42,0,0,45,0,0,0,0],"split_type":[0,0,0,0,0,0,0,0,0,0,0,0,0],"sum_hessian":[2.3875824E2,2.3702153E2,1.7367167E0,1.0903303E2,1.279885E2,1.0750137E2,1.5316534E0,1.3770721E0,1.2661143E2,1.4028274E0,1.0609855E2,1.1890752E2,7.703914E0],"tree_param":{"num_deleted":"0","num_feature":"47","num_nodes":"13","size_leaf_vector":"0"}},{"base_weights":[2.035407E0,2.0411806E0,1.1486851E-2,2.1239486E0,1.9131078E0,2.4967303E-2,2.1328402E0,2.0179088E0,1.6212896E0,5.5219524E-2,3.986312E-2,1.741324E-2,5.230943E-2,4.3134585E-2,1.4788272E-3],"categories":[],"categories_nodes":[],"categories_segments":[],"categories_sizes":[],"default_left":[0,0,0,0,0,0,0,0,0,0,0,0,0,0,0],"id":34,"left_children":[1,3,-1,5,7,-1,9,11,13,-1,-1,-1,-1,-1,-1],"loss_changes":[1.6516113E0,9.686279E-1,0E0,5.1934814E-1,1.7136841E0,0E0,3.5168457E-1,1.1503601E0,2.3505478E0,0E0,0E0,0E0,0E0,0E0,0E0],"parents":[2147483647,0,0,1,1,3,3,4,4,6,6,7,7,8,8],"right_children":[2,4,-1,6,8,-1,10,12,14,-1,-1,-1,-1,-1,-1],"split_conditions":[1.6E1,2.44E1,1.1486851E-2,-4.7E0,1E0,2.4967303E-2,1E0,-3.1E0,1E0,5.5219524E-2,3.986312E-2,1.741324E-2,5.230943E-2,4.3134585E-2,1.4788272E-3],"split_indices":[5,1,0,46,24,0,14,43,20,0,0,0,0,0,0],"split_type":[0,0,0,0,0,0,0,0,0,0,0,0,0,0,0],"sum_hessian":[2.36521E2,2.3548709E2,1.0339136E0,1.3895657E2,9.653052E1,1.479052E0,1.3747752E2,6.910632E1,2.7424192E1,1.3283568E2,4.6418347E0,1.2679371E0,6.783839E1,2.6334562E1,1.08963E0],"tree_param":{"num_deleted":"0","num_feature":"47","num_nodes":"15","size_leaf_vector":"0"}},{"base_weights":[2.0191464E0,8.519807E-3,2.0291138E0,2.046899E0,1.3451939E0,2.0978346E0,1.8283701E0,1.8251693E0,3.030783E-2,3.030783E-2,5.405912E-2,3.3390753E-2,5.024258E-2,3.030783E-2,5.405855E-2],"categories":[],"categories_nodes":[],"categories_segments":[],"categories_sizes":[],"default_left":[0,0,0,0,0,0,0,0,0,0,0,0,0,0,0],"id":35,"left_children":[1,-1,3,5,7,9,11,13,-1,-1,-1,-1,-1,-1,-1],"loss_changes":[3.5216675E0,0E0,1.7382812E0,1.0699463E0,1.3008099E0,1.1898193E0,2.140854E0,3.5829067E-1,0E0,0E0,0E0,0E0,0E0,0E0,0E0],"parents":[2147483647,0,0,2,2,3,3,4,4,5,5,6,6,7,7],"right_children":[2,-1,4,6,8,10,12,14,-1,-1,-1,-1,-1,-1,-1],"split_conditions":[-3.7E0,8.519807E-3,1E0,7.57E1,1E0,9.11E-1,-2.8E0,-2.4E0,3.030783E-2,3.030783E-2,5.405912E-2,3.3390753E-2,5.024258E-2,3.030783E-2,5.405855E-2],"split_indices":[43,0,22,23,21,45,42,44,0,0,0,0,0,0,0],"split_type":[0,0,0,0,0,0,0,0,0,0,0,0,0,0,0],"sum_hessian":[2.3522937E2,1.5230525E0,2.3370631E2,2.2689345E2,6.8128686E0,1.8096924E2,4.5924213E1,4.2242126E0,2.5886562E0,1.0250926E0,1.7994414E2,9.9835005E0,3.5940712E1,1.4088347E0,2.8153777E0],"tree_param":{"num_deleted":"0","num_feature":"47","num_nodes":"15","size_leaf_vector":"0"}},{"base_weights":[1.9708986E0,2.0900202E0,1.7644496E0,5.402527E-2,1.2385639E0,1.7871974E0,7.5329936E-1,1.8853622E-2,4.0973578E-2,1.8333213E0,1.1690475E0,8.539715E-3,2.362747E-2,4.7822356E-2,2.7399285E-2,5.575881E-3,4.1317474E-2],"categories":[],"categories_nodes":[],"categories_segments":[],"categories_sizes":[],"default_left":[0,0,0,0,0,0,0,0,0,0,0,0,0,0,0,0,0],"id":36,"left_children":[1,3,5,-1,7,9,11,-1,-1,13,15,-1,-1,-1,-1,-1,-1],"loss_changes":[4.359558E0,6.9799805E-1,1.4162292E0,0E0,1.6396904E-1,1.584137E0,4.640162E-2,0E0,0E0,9.520874E-1,2.8203516E0,0E0,0E0,0E0,0E0,0E0,0E0],"parents":[2147483647,0,0,1,1,2,2,4,4,5,5,6,6,9,9,10,10],"right_children":[2,4,6,-1,8,10,12,-1,-1,14,16,-1,-1,-1,-1,-1,-1],"split_conditions":[7.16E1,3E0,1E0,5.402527E-2,1.1795E0,1E0,1.201E0,1.8853622E-2,4.0973578E-2,1E0,-2.5E0,8.539715E-3,2.362747E-2,4.7822356E-2,2.7399285E-2,5.575881E-3,4.1317474E-2],"split_indices":[23,40,0,0,45,15,45,0,0,22,43,0,0,0,0,0,0],"split_type":[0,0,0,0,0,0,0,0,0,0,0,0,0,0,0,0,0],"sum_hessian":[2.3362813E2,1.4562946E2,8.799867E1,1.4256029E2,3.0691702E0,8.567221E1,2.3264613E0,1.8789932E0,1.1901772E0,7.886768E1,6.8045273E0,1.1710397E0,1.1554216E0,7.529993E1,3.567758E0,2.409778E0,4.394749E0],"tree_param":{"num_deleted":"0","num_feature":"47","num_nodes":"17","size_leaf_vector":"0"}},{"base_weights":[1.9308324E0,1.319359E-2,1.9371313E0,5.3057987E-2,1.8511575E0,1.8760475E0,1.2957658E0,3.1463932E-2,4.8674755E-2,3.1463932E-2,4.87651E-2],"categories":[],"categories_nodes":[],"categories_segments":[],"categories_sizes":[],"default_left":[0,0,0,0,0,0,0,0,0,0,0],"id":37,"left_children":[1,-1,3,-1,5,7,9,-1,-1,-1,-1],"loss_changes":[1.564331E0,0E0,1.1680298E0,0E0,1.0250854E0,9.944763E-1,6.2606144E-1,0E0,0E0,0E0,0E0],"parents":[2147483647,0,0,2,2,4,4,5,5,6,6],"right_children":[2,-1,4,-1,6,8,10,-1,-1,-1,-1],"split_conditions":[-4.6E0,1.319359E-2,6.6E1,5.3057987E-2,1E0,6.66E1,7.4E1,3.1463932E-2,4.8674755E-2,3.1463932E-2,4.87651E-2],"split_indices":[46,0,23,0,18,23,23,0,0,0,0],"split_type":[0,0,0,0,0,0,0,0,0,0,0],"sum_hessian":[2.3451236E2,1.2538844E0,2.3325847E2,8.9114426E1,1.4414404E2,1.3691327E2,7.2307816E0,4.538098E0,1.3237517E2,5.2004094E0,2.0303721E0],"tree_param":{"num_deleted":"0","num_feature":"47","num_nodes":"11","size_leaf_vector":"0"}},{"base_weights":[1.9059004E0,2.034416E0,1.7899828E0,2.050322E0,2.5755735E-2,1.7301667E0,5.3394504E-2,1.8012223E0,2.107764E0,1.8114545E0,1.3831102E0,4.998121E-2,1.9768305E-2,6.072754E-2,5.120244E-2,2.1135557E-2,4.6908528E-2,3.8629718E-2,1.4599767E-2],"categories":[],"categories_nodes":[],"categories_segments":[],"categories_sizes":[],"default_left":[0,0,0,0,0,0,0,0,0,0,0,0,0,0,0,0,0,0,0],"id":38,"left_children":[1,3,5,7,-1,9,-1,11,13,15,17,-1,-1,-1,-1,-1,-1,-1,-1],"loss_changes":[2.0281372E0,8.3358765E-1,8.124695E-1,2.3254395E-2,0E0,1.9866943E0,0E0,2.6712265E0,6.097412E-1,6.140137E-1,1.7528877E0,0E0,0E0,0E0,0E0,0E0,0E0,0E0,0E0],"parents":[2147483647,0,0,1,1,2,2,3,3,5,5,7,7,8,8,9,9,10,10],"right_children":[2,4,6,8,-1,10,-1,12,14,16,18,-1,-1,-1,-1,-1,-1,-1,-1],"split_conditions":[6.78E1,1E0,8.1E1,1.199E0,2.5755735E-2,7.71E1,5.3394504E-2,1E0,1.214E0,9.41E-1,1E0,4.998121E-2,1.9768305E-2,6.072754E-2,5.120244E-2,2.1135557E-2,4.6908528E-2,3.8629718E-2,1.4599767E-2],"split_indices":[23,20,23,45,0,23,0,21,45,45,3,0,0,0,0,0,0,0,0],"split_type":[0,0,0,0,0,0,0,0,0,0,0,0,0,0,0,0,0,0,0],"sum_hessian":[2.2751292E2,1.04486664E2,1.2302626E2,1.0242693E2,2.0597332E0,1.0446383E2,1.8562431E1,2.183676E1,8.059017E1,8.309365E1,2.1370176E1,1.8748861E1,3.0878983E0,2.2061613E1,5.852856E1,1.7180325E0,8.137562E1,1.8199276E1,3.1708992E0],"tree_param":{"num_deleted":"0","num_feature":"47","num_nodes":"19","size_leaf_vector":"0"}},{"base_weights":[1.832804E0,1.3485236E0,1.8818759E0,1.5053293E0,6.006419E-1,1.9196292E0,4.1468944E-2,9.8690146E-1,1.6151998E0,-1.4793599E-2,1.027145E0,1.9476789E0,4.1468944E-2,1.1500395E-2,3.2298036E-2,1.1751813E-2,4.1468944E-2,3.6881477E-2,1.3508001E-2,5.114686E-2,4.4224586E-2],"categories":[],"categories_nodes":[],"categories_segments":[],"categories_sizes":[],"default_left":[0,0,0,0,0,0,0,0,0,0,0,0,0,0,0,0,0,0,0,0,0],"id":39,"left_children":[1,3,5,7,9,11,-1,13,15,-1,17,19,-1,-1,-1,-1,-1,-1,-1,-1,-1],"loss_changes":[4.5213623E0,2.281971E0,1.3150024E0,1.5403976E0,2.8673463E0,1.0638428E0,0E0,8.17173E-1,6.8276596E-1,0E0,4.5861292E-1,4.3426514E-1,0E0,0E0,0E0,0E0,0E0,0E0,0E0,0E0,0E0],"parents":[2147483647,0,0,1,1,2,2,3,3,4,4,5,5,7,7,8,8,10,10,11,11],"right_children":[2,4,6,8,10,12,-1,14,16,-1,18,20,-1,-1,-1,-1,-1,-1,-1,-1,-1],"split_conditions":[-2.8E0,1E0,3E0,1E0,1.89E1,1.25E0,4.1468944E-2,2.09E1,-3.5E0,-1.4793599E-2,2.12E1,1E0,4.1468944E-2,1.1500395E-2,3.2298036E-2,1.1751813E-2,4.1468944E-2,3.6881477E-2,1.3508001E-2,5.114686E-2,4.4224586E-2],"split_indices":[43,29,41,41,1,5,0,1,43,0,1,29,0,0,0,0,0,0,0,0,0],"split_type":[0,0,0,0,0,0,0,0,0,0,0,0,0,0,0,0,0,0,0,0,0],"sum_hessian":[2.320458E2,2.2544197E1,2.095016E2,1.819836E1,4.3458376E0,1.8534865E2,2.4152966E1,6.8713765E0,1.1326983E1,1.051088E0,3.2947497E0,1.7376659E2,1.158206E1,2.7713115E0,4.100065E0,1.059051E0,1.0267933E1,1.3041196E0,1.9906303E0,1.4222737E2,3.1539206E1],"tree_param":{"num_deleted":"0","num_feature":"47","num_nodes":"21","size_leaf_vector":"0"}},{"base_weights":[1.7955992E0,1.9191328E0,1.4631515E0,5.222885E-2,1.8193967E0,1.6178912E0,1.1249574E0,1.1883116E0,1.8422226E0,1.1454858E0,1.8522725E0,9.4920886E-1,1.7880064E0,4.1716926E-2,5.5923196E-3,4.7545865E-2,1.9983461E-2,3.379331E-2,7.4464725E-3,5.087133E-2,3.8482506E-2,1.12083675E-2,2.9279672E-2,2.6321393E-2,5.4814816E-2],"categories":[],"categories_nodes":[],"categories_segments":[],"categories_sizes":[],"default_left":[0,0,0,0,0,0,0,0,0,0,0,0,0,0,0,0,0,0,0,0,0,0,0,0,0],"id":40,"left_children":[1,3,5,-1,7,9,11,13,15,17,19,21,23,-1,-1,-1,-1,-1,-1,-1,-1,-1,-1,-1,-1],"loss_changes":[8.813049E0,6.1151123E-1,2.8060303E0,0E0,5.125427E-1,4.151718E0,2.0408916E0,1.7686539E0,2.987976E-1,2.123497E0,7.986374E-1,1.6134052E0,2.3206711E-1,0E0,0E0,0E0,0E0,0E0,0E0,0E0,0E0,0E0,0E0,0E0,0E0],"parents":[2147483647,0,0,1,1,2,2,4,4,5,5,6,6,7,7,8,8,9,9,10,10,11,11,12,12],"right_children":[2,4,6,-1,8,10,12,14,16,18,20,22,24,-1,-1,-1,-1,-1,-1,-1,-1,-1,-1,-1,-1],"split_conditions":[2E0,6.6E1,7.56E1,5.222885E-2,6.65E1,-2.7E0,2E0,1E0,1E0,1E0,1.301E0,7.76E1,7.99E1,4.1716926E-2,5.5923196E-3,4.7545865E-2,1.9983461E-2,3.379331E-2,7.4464725E-3,5.087133E-2,3.8482506E-2,1.12083675E-2,2.9279672E-2,2.6321393E-2,5.4814816E-2],"split_indices":[41,23,23,0,23,46,40,24,26,28,45,23,23,0,0,0,0,0,0,0,0,0,0,0,0],"split_type":[0,0,0,0,0,0,0,0,0,0,0,0,0,0,0,0,0,0,0,0,0,0,0,0,0],"sum_hessian":[2.4047508E2,1.7377315E2,6.6701935E1,7.67468E1,9.7026344E1,4.456062E1,2.2141314E1,4.25397E0,9.277237E1,1.56689E1,2.8891718E1,1.8357794E1,3.78352E0,2.6798148E0,1.5741552E0,9.155654E1,1.2158282E0,1.2783887E1,2.8850124E0,2.2252445E1,6.6392746E0,5.48154E0,1.2876253E1,1.7484473E0,2.0350726E0],"tree_param":{"num_deleted":"0","num_feature":"47","num_nodes":"25","size_leaf_vector":"0"}},{"base_weights":[1.8217882E0,1.9153861E0,1.5708919E0,1.9236869E0,1.3472275E-2,1.6016154E0,3.1905083E-3,4.953784E-2,1.946063E-2,1.4090921E0,1.8079299E0,2.6981473E-2,4.184578E-2,4.7891077E-2,2.5622467E-2],"categories":[],"categories_nodes":[],"categories_segments":[],"categories_sizes":[],"default_left":[0,0,0,0,0,0,0,0,0,0,0,0,0,0,0],"id":41,"left_children":[1,3,5,7,-1,9,-1,-1,-1,11,13,-1,-1,-1,-1],"loss_changes":[4.305603E0,1.3948975E0,2.6783142E0,4.40979E-1,0E0,1.5882263E0,0E0,0E0,0E0,2.1177292E0,5.7902527E-1,0E0,0E0,0E0,0E0],"parents":[2147483647,0,0,1,1,2,2,3,3,5,5,9,9,10,10],"right_children":[2,4,6,8,-1,10,-1,-1,-1,12,14,-1,-1,-1,-1],"split_conditions":[2E0,1E0,3.57E1,4E0,1.3472275E-2,1E0,3.1905083E-3,4.953784E-2,1.946063E-2,1E0,1E0,2.6981473E-2,4.184578E-2,4.7891077E-2,2.5622467E-2],"split_indices":[41,33,1,10,0,40,0,0,0,24,20,0,0,0,0],"split_type":[0,0,0,0,0,0,0,0,0,0,0,0,0,0,0],"sum_hessian":[2.318585E2,1.66723E2,6.51355E1,1.6551053E2,1.212474E0,6.3665676E1,1.4698224E0,1.6435149E2,1.1590501E0,3.4736004E1,2.892967E1,1.4265182E1,2.0470823E1,2.6428576E1,2.501096E0],"tree_param":{"num_deleted":"0","num_feature":"47","num_nodes":"15","size_leaf_vector":"0"}},{"base_weights":[1.8179927E0,1.1259583E0,1.852945E0,-1.4252865E-3,1.2812343E0,1.8932813E0,1.5431386E0,1.461907E0,3.6665448E-3,4.9406096E-2,4.066947E-2,3.8240463E-2,5.0732885E-2,7.7038943E-3,3.8240463E-2],"categories":[],"categories_nodes":[],"categories_segments":[],"categories_sizes":[],"default_left":[0,0,0,0,0,0,0,0,0,0,0,0,0,0,0],"id":42,"left_children":[1,3,5,-1,7,9,11,13,-1,-1,-1,-1,-1,-1,-1],"loss_changes":[4.571411E0,2.394806E0,1.533081E0,0E0,1.9984951E0,6.144409E-1,1.9691467E0,8.770046E-1,0E0,0E0,0E0,0E0,0E0,0E0,0E0],"parents":[2147483647,0,0,1,1,2,2,4,4,5,5,6,6,7,7],"right_children":[2,4,6,-1,8,10,12,14,-1,-1,-1,-1,-1,-1,-1],"split_conditions":[-3E0,1.091E0,7.95E1,-1.4252865E-3,2.58E1,1E0,-1.8025259E0,5.99E1,3.6665448E-3,4.9406096E-2,4.066947E-2,3.8240463E-2,5.0732885E-2,7.7038943E-3,3.8240463E-2],"split_indices":[43,45,23,0,1,15,42,23,0,0,0,0,0,0,0],"split_type":[0,0,0,0,0,0,0,0,0,0,0,0,0,0,0],"sum_hessian":[2.2406944E2,1.1526851E1,2.125426E2,1.2831956E0,1.0243655E1,1.8603885E2,2.6503742E1,8.663569E0,1.5800859E0,1.669417E2,1.909716E1,1.5124322E1,1.1379421E1,1.0222509E0,7.6413183E0],"tree_param":{"num_deleted":"0","num_feature":"47","num_nodes":"15","size_leaf_vector":"0"}},{"base_weights":[1.7472236E0,1.2743924E-2,1.7560833E0,1.8120602E0,1.5827383E0,1.8918996E0,1.658262E0,2.8914968E-2,1.6860892E0,4.9040508E-2,2.8914968E-2,3.6645718E-2,4.8977513E-2,4.546075E-2,3.610197E-2],"categories":[],"categories_nodes":[],"categories_segments":[],"categories_sizes":[],"default_left":[0,0,0,0,0,0,0,0,0,0,0,0,0,0,0],"id":43,"left_children":[1,-1,3,5,7,9,11,-1,13,-1,-1,-1,-1,-1,-1],"loss_changes":[2.0258179E0,0E0,1.0742188E0,8.4588623E-1,2.9451447E0,1.5194702E0,2.4400482E0,0E0,7.014313E-1,0E0,0E0,0E0,0E0,0E0,0E0],"parents":[2147483647,0,0,2,2,3,3,4,4,5,5,6,6,8,8],"right_children":[2,-1,4,6,8,10,12,-1,14,-1,-1,-1,-1,-1,-1],"split_conditions":[-3.7E0,1.2743924E-2,7.51E1,2.45E1,-3.2E0,5E0,-1.6E0,2.8914968E-2,1.294E0,4.9040508E-2,2.8914968E-2,3.6645718E-2,4.8977513E-2,4.546075E-2,3.610197E-2],"split_indices":[43,0,23,1,46,41,43,0,45,0,0,0,0,0,0],"split_type":[0,0,0,0,0,0,0,0,0,0,0,0,0,0,0],"sum_hessian":[2.245324E2,1.8187475E0,2.2271364E2,1.6517668E2,5.7536957E1,1.05457825E2,5.971886E1,8.565452E0,4.8971508E1,1.0383944E2,1.6183819E0,3.2552177E1,2.7166683E1,3.9452595E1,9.518909E0],"tree_param":{"num_deleted":"0","num_feature":"47","num_nodes":"15","size_leaf_vector":"0"}},{"base_weights":[1.7402971E0,1.8325834E0,1.4746705E0,1.8586826E0,1.4212165E0,1.6058505E0,1.0725063E0,1.9085366E0,1.5824337E0,9.9112856E-1,4.5457035E-2,1.6495429E0,3.5926553E-3,2.2119369E-1,1.3160176E0,3.958739E-2,4.9656104E-2,4.653992E-2,2.0099528E-2,3.3262406E-2,3.1973708E-3,4.3754276E-2,2.787231E-2,3.1840708E-2,-2.8291527E-2,4.5261476E-2,2.1801248E-2],"categories":[],"categories_nodes":[],"categories_segments":[],"categories_sizes":[],"default_left":[0,0,0,0,0,0,0,0,0,0,0,0,0,0,0,0,0,0,0,0,0,0,0,0,0,0,0],"id":44,"left_children":[1,3,5,7,9,11,13,15,17,19,-1,21,-1,23,25,-1,-1,-1,-1,-1,-1,-1,-1,-1,-1,-1,-1],"loss_changes":[4.3898315E0,7.076416E-1,2.450714E0,9.223633E-1,1.0652885E0,2.5558014E0,3.1238556E0,2.0965576E-2,4.1272736E0,1.5038242E0,0E0,5.541229E-1,0E0,6.526383E0,1.9817886E0,0E0,0E0,0E0,0E0,0E0,0E0,0E0,0E0,0E0,0E0,0E0,0E0],"parents":[2147483647,0,0,1,1,2,2,3,3,4,4,5,5,6,6,7,7,8,8,9,9,11,11,13,13,14,14],"right_children":[2,4,6,8,10,12,14,16,18,20,-1,22,-1,24,26,-1,-1,-1,-1,-1,-1,-1,-1,-1,-1,-1,-1],"split_conditions":[2E0,1E0,1E0,1E0,-2.3E0,1.399E0,2.2E1,-2.6E0,2.65E1,1E0,4.5457035E-2,1.304E0,3.5926553E-3,7.35E1,3E0,3.958739E-2,4.9656104E-2,4.653992E-2,2.0099528E-2,3.3262406E-2,3.1973708E-3,4.3754276E-2,2.787231E-2,3.1840708E-2,-2.8291527E-2,4.5261476E-2,2.1801248E-2],"split_indices":[41,18,21,29,46,45,1,44,1,39,0,45,0,23,41,0,0,0,0,0,0,0,0,0,0,0,0],"split_type":[0,0,0,0,0,0,0,0,0,0,0,0,0,0,0,0,0,0,0,0,0,0,0,0,0,0,0],"sum_hessian":[2.2090831E2,1.6199034E2,5.8917965E1,1.5082706E2,1.1163288E1,4.3368793E1,1.5549173E1,1.2554503E2,2.5282024E1,5.7930307E0,5.3702574E0,4.199368E1,1.3751137E0,3.7202246E0,1.1828949E1,9.966421E0,1.1557861E2,1.9150473E1,6.131552E0,4.0537515E0,1.7392792E0,3.740884E1,4.58484E0,2.1627965E0,1.557428E0,5.3882904E0,6.4406586E0],"tree_param":{"num_deleted":"0","num_feature":"47","num_nodes":"27","size_leaf_vector":"0"}},{"base_weights":[1.6722184E0,7.126786E-1,1.6826031E0,-0E0,2.6641482E-2,1.7009555E0,1.2640789E0,1.7886299E0,1.596231E0,3.0748459E-2,4.1227944E-2,3.0748459E-2,4.6219327E-2,3.9495695E-2,5.052512E-2],"categories":[],"categories_nodes":[],"categories_segments":[],"categories_sizes":[],"default_left":[0,0,0,0,0,0,0,0,0,0,0,0,0,0,0],"id":45,"left_children":[1,3,5,-1,-1,7,9,11,13,-1,-1,-1,-1,-1,-1],"loss_changes":[1.5991211E0,7.0426285E-1,7.883911E-1,0E0,0E0,7.923584E-1,3.688774E-1,4.0109253E-1,9.792328E-1,0E0,0E0,0E0,0E0,0E0,0E0],"parents":[2147483647,0,0,1,1,2,2,5,5,6,6,7,7,8,8],"right_children":[2,4,6,-1,-1,8,10,12,14,-1,-1,-1,-1,-1,-1],"split_conditions":[-3.3E0,1.156E0,3.33E1,-0E0,2.6641482E-2,6.98E1,-9E-1,9.41E-1,-7E-1,3.0748459E-2,4.1227944E-2,3.0748459E-2,4.6219327E-2,3.9495695E-2,5.052512E-2],"split_indices":[44,45,1,0,0,23,44,45,44,0,0,0,0,0,0],"split_type":[0,0,0,0,0,0,0,0,0,0,0,0,0,0,0],"sum_hessian":[2.1597725E2,2.7079477E0,2.132693E2,1.042649E0,1.6652987E0,2.0295105E2,1.0318249E1,1.0659795E2,9.6353096E1,5.421726E0,4.8965225E0,1.4958888E0,1.05102066E2,8.5300354E1,1.1052736E1],"tree_param":{"num_deleted":"0","num_feature":"47","num_nodes":"15","size_leaf_vector":"0"}},{"base_weights":[1.6430087E0,1.5353445E0,1.809082E0,1.6020921E0,1.0348115E0,4.293272E-2,4.781869E-2,1.6172084E0,9.1740066E-1,1.279751E0,3.8114315E-1,4.276478E-2,3.507794E-2,8.12288E-3,4.2671334E-2,8.303402E-3,3.8391173E-2,-1.1104968E-2,2.2226298E-2],"categories":[],"categories_nodes":[],"categories_segments":[],"categories_sizes":[],"default_left":[0,0,0,0,0,0,0,0,0,0,0,0,0,0,0,0,0,0,0],"id":46,"left_children":[1,3,5,7,9,-1,-1,11,13,15,17,-1,-1,-1,-1,-1,-1,-1,-1],"loss_changes":[2.8601685E0,3.842926E0,1.3092041E-2,5.924988E-1,2.5180283E0,0E0,0E0,5.22522E-1,1.4227171E0,2.2497902E0,2.498652E0,0E0,0E0,0E0,0E0,0E0,0E0,0E0,0E0],"parents":[2147483647,0,0,1,1,2,2,3,3,4,4,7,7,8,8,9,9,10,10],"right_children":[2,4,6,8,10,-1,-1,12,14,16,18,-1,-1,-1,-1,-1,-1,-1,-1],"split_conditions":[-1.7E0,3E0,-2.2E0,1E0,1.229E0,4.293272E-2,4.781869E-2,2E0,7.33E1,-3.7E0,4E0,4.276478E-2,3.507794E-2,8.12288E-3,4.2671334E-2,8.303402E-3,3.8391173E-2,-1.1104968E-2,2.2226298E-2],"split_indices":[42,41,44,20,45,0,0,41,23,42,41,0,0,0,0,0,0,0,0],"split_type":[0,0,0,0,0,0,0,0,0,0,0,0,0,0,0,0,0,0,0],"sum_hessian":[2.1758003E2,1.347474E2,8.283262E1,1.1796572E2,1.6781687E1,1.1133156E1,7.169946E1,1.1475694E2,3.2087793E0,1.1821E1,4.9606867E0,9.4032E1,2.0724947E1,2.15507E0,1.0537094E0,2.4428196E0,9.3781805E0,1.780332E0,3.1803548E0],"tree_param":{"num_deleted":"0","num_feature":"47","num_nodes":"19","size_leaf_vector":"0"}},{"base_weights":[1.6293215E0,1.6571962E0,7.192347E-1,1.6764843E0,5.616971E-1,1.4077599E0,1.5355729E-1,1.6848768E0,1.6892573E-2,-1.4963437E-2,1.068814E0,1.2940953E-2,4.4402618E-2,-2.1132903E-2,8.956153E-1,2.9226847E-2,4.364657E-2,4.191722E-2,6.2387483E-3,2.7950313E-2,9.18345E-3],"categories":[],"categories_nodes":[],"categories_segments":[],"categories_sizes":[],"default_left":[0,0,0,0,0,0,0,0,0,0,0,0,0,0,0,0,0,0,0,0,0],"id":47,"left_children":[1,3,5,7,9,11,13,15,-1,-1,17,-1,-1,-1,19,-1,-1,-1,-1,-1,-1],"loss_changes":[4.8499756E0,3.878357E0,2.6998663E0,1.1984253E0,2.9875188E0,4.996519E-1,3.8329391E0,8.6950684E-1,0E0,0E0,2.0761814E0,0E0,0E0,0E0,1.00841045E-1,0E0,0E0,0E0,0E0,0E0,0E0],"parents":[2147483647,0,0,1,1,2,2,3,3,4,4,5,5,6,6,7,7,10,10,14,14],"right_children":[2,4,6,8,10,12,14,16,-1,-1,18,-1,-1,-1,20,-1,-1,-1,-1,-1,-1],"split_conditions":[1E0,3.66E1,7.4E1,1E0,-1.6E0,1.14E0,-2E0,-3.8E0,1.6892573E-2,-1.4963437E-2,7.18E1,1.2940953E-2,4.4402618E-2,-2.1132903E-2,1.283E0,2.9226847E-2,4.364657E-2,4.191722E-2,6.2387483E-3,2.7950313E-2,9.18345E-3],"split_indices":[22,1,23,12,44,45,44,42,0,0,23,0,0,0,45,0,0,0,0,0,0],"split_type":[0,0,0,0,0,0,0,0,0,0,0,0,0,0,0,0,0,0,0,0,0],"sum_hessian":[2.1235182E2,2.0562239E2,6.729425E0,2.0176845E2,3.8539498E0,2.6936014E0,4.035824E0,1.9976665E2,2.0017967E0,1.0982769E0,2.755673E0,1.0516983E0,1.641903E0,1.6595653E0,2.3762584E0,6.356293E0,1.9341035E2,1.7513045E0,1.0043684E0,1.3124304E0,1.063828E0],"tree_param":{"num_deleted":"0","num_feature":"47","num_nodes":"21","size_leaf_vector":"0"}},{"base_weights":[1.6472197E0,1.4986159E0,4.4453826E-2,1.5650094E0,1.1423016E0,1.5797702E0,1.5315449E-2,1.3318815E0,4.1573104E-2,3.174412E-2,4.1464787E-2,2.6541019E-2,4.1464787E-2,-1.0129223E-2,1.2315704E-2],"categories":[],"categories_nodes":[],"categories_segments":[],"categories_sizes":[],"default_left":[0,0,0,0,0,0,0,0,0,0,0,0,0,0,0],"id":48,"left_children":[1,3,-1,5,7,9,-1,11,13,-1,-1,-1,-1,-1,-1],"loss_changes":[1.7267456E0,1.225296E0,0E0,5.036621E-1,2.8958282E0,4.8545837E-1,0E0,7.665577E-1,7.6393926E-1,0E0,0E0,0E0,0E0,0E0,0E0],"parents":[2147483647,0,0,1,1,3,3,4,4,5,5,7,7,8,8],"right_children":[2,4,-1,6,8,10,-1,12,14,-1,-1,-1,-1,-1,-1],"split_conditions":[-1.9E0,3E0,4.4453826E-2,1E0,1E0,-2.9E0,1.5315449E-2,5E0,-3.2E0,3.174412E-2,4.1464787E-2,2.6541019E-2,4.1464787E-2,-1.0129223E-2,1.2315704E-2],"split_indices":[44,41,0,8,3,43,0,41,42,0,0,0,0,0,0],"split_type":[0,0,0,0,0,0,0,0,0,0,0,0,0,0,0],"sum_hessian":[2.160027E2,8.118208E1,1.3482062E2,6.7091866E1,1.4090222E1,6.573716E1,1.3547028E0,1.186589E1,2.2243323E0,1.095668E1,5.478048E1,7.8956823E0,3.9702072E0,1.0053358E0,1.2189965E0],"tree_param":{"num_deleted":"0","num_feature":"47","num_nodes":"15","size_leaf_vector":"0"}},{"base_weights":[1.5754222E0,1.7676871E0,1.4235998E0,1.3921127E0,4.7003135E-2,7.641622E-3,1.4379627E0,6.582637E-3,1.5340041E0,1.380487E0,4.6936173E-2,4.187946E-2,1.0362402E-2,3.6884654E-2,2.6470995E-2],"categories":[],"categories_nodes":[],"categories_segments":[],"categories_sizes":[],"default_left":[0,0,0,0,0,0,0,0,0,0,0,0,0,0,0],"id":49,"left_children":[1,3,5,7,-1,-1,9,-1,11,13,-1,-1,-1,-1,-1],"loss_changes":[4.9878845E0,1.0857849E0,1.5865631E0,2.0676422E0,0E0,0E0,1.6478119E0,0E0,1.0290089E0,1.397171E0,0E0,0E0,0E0,0E0,0E0],"parents":[2147483647,0,0,1,1,2,2,3,3,6,6,8,8,9,9],"right_children":[2,4,6,8,-1,-1,10,-1,12,14,-1,-1,-1,-1,-1],"split_conditions":[6.77E1,1.164E0,6.78E1,5.65E1,4.7003135E-2,7.641622E-3,-7E-1,6.582637E-3,3.05E1,1E0,4.6936173E-2,4.187946E-2,1.0362402E-2,3.6884654E-2,2.6470995E-2],"split_indices":[23,45,23,23,0,0,44,0,1,39,0,0,0,0,0],"split_type":[0,0,0,0,0,0,0,0,0,0,0,0,0,0,0],"sum_hessian":[2.02734E2,8.7362976E1,1.15371025E2,1.4062597E1,7.330038E1,1.6541584E0,1.13716866E2,1.7665738E0,1.2296023E1,1.00852745E2,1.2864123E1,1.1078065E1,1.217959E0,8.560659E1,1.5246156E1],"tree_param":{"num_deleted":"0","num_feature":"47","num_nodes":"15","size_leaf_vector":"0"}},{"base_weights":[1.5530069E0,1.642138E0,1.3717933E0,1.6661988E0,1.0503747E0,1.4993801E0,1.1360278E0,1.7787079E0,1.5673354E0,-7.04291E-3,1.4031847E0,1.524413E0,7.6572034E-3,1.2641373E0,4.9155524E-1,4.623898E-2,1.9350749E-2,1.2710428E-2,4.0793996E-2,4.1601297E-2,8.877218E-3,8.146032E-3,3.9743092E-2,3.4753673E-2,3.0762139E-3,2.7699599E-2,-1.1250861E-2],"categories":[],"categories_nodes":[],"categories_segments":[],"categories_sizes":[],"default_left":[0,0,0,0,0,0,0,0,0,0,0,0,0,0,0,0,0,0,0,0,0,0,0,0,0,0,0],"id":50,"left_children":[1,3,5,7,9,11,13,15,17,-1,19,21,-1,23,25,-1,-1,-1,-1,-1,-1,-1,-1,-1,-1,-1,-1],"loss_changes":[2.5099487E0,1.2350769E0,1.4961853E0,4.1360474E-1,3.4804444E0,1.0461655E0,1.93256E0,7.036438E-1,1.2877655E0,0E0,9.156132E-1,9.276581E-1,0E0,2.0828857E0,3.3329992E0,0E0,0E0,0E0,0E0,0E0,0E0,0E0,0E0,0E0,0E0,0E0,0E0],"parents":[2147483647,0,0,1,1,2,2,3,3,4,4,5,5,6,6,7,7,8,8,10,10,11,11,13,13,14,14],"right_children":[2,4,6,8,10,12,14,16,18,-1,20,22,-1,24,26,-1,-1,-1,-1,-1,-1,-1,-1,-1,-1,-1,-1],"split_conditions":[7.28E1,4E0,2E0,2.27E1,5.7E1,7.5E0,1E0,1E0,-3E0,-7.04291E-3,7.07E1,7.3E1,7.6572034E-3,1E0,8.04E1,4.623898E-2,1.9350749E-2,1.2710428E-2,4.0793996E-2,4.1601297E-2,8.877218E-3,8.146032E-3,3.9743092E-2,3.4753673E-2,3.0762139E-3,2.7699599E-2,-1.1250861E-2],"split_indices":[23,41,41,1,23,5,27,17,43,0,23,23,0,39,23,0,0,0,0,0,0,0,0,0,0,0,0],"split_type":[0,0,0,0,0,0,0,0,0,0,0,0,0,0,0,0,0,0,0,0,0,0,0,0,0,0,0],"sum_hessian":[2.08056E2,1.3701662E2,7.103937E1,1.3082591E2,6.190715E0,4.447999E1,2.6559381E1,5.767458E1,7.315133E1,1.2528268E0,4.9378877E0,4.338151E1,1.0984793E0,2.1709007E1,4.8503733E0,5.606213E1,1.6124476E0,1.7227044E0,7.142863E1,3.842748E0,1.0951399E0,1.0257375E0,4.2355774E1,1.9979654E1,1.7293533E0,3.0095024E0,1.8408711E0],"tree_param":{"num_deleted":"0","num_feature":"47","num_nodes":"27","size_leaf_vector":"0"}},{"base_weights":[1.553794E0,1.6034272E0,1.1632683E0,1.6169034E0,4.686472E-3,6.513966E-1,4.7716204E-2,1.6709647E0,1.288205E0,-3.4222413E-2,8.589304E-1,4.3762695E-2,3.3334818E-2,2.3954518E-2,4.2003114E-2,1.8622803E-2,-1.6894704E-2,2.7504874E-2,-7.079158E-3],"categories":[],"categories_nodes":[],"categories_segments":[],"categories_sizes":[],"default_left":[0,0,0,0,0,0,0,0,0,0,0,0,0,0,0,0,0,0,0],"id":51,"left_children":[1,3,5,7,-1,9,-1,11,13,15,17,-1,-1,-1,-1,-1,-1,-1,-1],"loss_changes":[3.2196045E0,3.177185E0,8.338985E0,2.3260193E0,0E0,2.273385E0,0E0,1.0248413E0,2.7725754E0,2.2229638E0,3.09373E0,0E0,0E0,0E0,0E0,0E0,0E0,0E0,0E0],"parents":[2147483647,0,0,1,1,2,2,3,3,5,5,7,7,8,8,9,9,10,10],"right_children":[2,4,6,8,-1,10,-1,12,14,16,18,-1,-1,-1,-1,-1,-1,-1,-1],"split_conditions":[3E0,1E0,-1.8025259E0,7.72E1,4.686472E-3,6.61E1,4.7716204E-2,3.01E1,8.07E1,1E0,1.262E0,4.3762695E-2,3.3334818E-2,2.3954518E-2,4.2003114E-2,1.8622803E-2,-1.6894704E-2,2.7504874E-2,-7.079158E-3],"split_indices":[41,12,42,23,0,23,0,1,23,40,45,0,0,0,0,0,0,0,0],"split_type":[0,0,0,0,0,0,0,0,0,0,0,0,0,0,0,0,0,0,0],"sum_hessian":[2.0385126E2,1.7957494E2,2.4276316E1,1.7775836E2,1.8165799E0,1.4494084E1,9.782231E0,1.5104155E2,2.671681E1,3.3153455E0,1.117874E1,1.3704776E2,1.3993792E1,1.4061883E1,1.2654927E1,1.3864634E0,1.9288822E0,9.5171175E0,1.6616212E0],"tree_param":{"num_deleted":"0","num_feature":"47","num_nodes":"19","size_leaf_vector":"0"}},{"base_weights":[1.5282657E0,1.5363681E0,-0E0,1.5915816E0,1.2770624E0,1.6179861E0,1.0730193E0,1.0399039E0,1.5814071E0,4.214267E-2,3.3509992E-2,3.2862663E-2,4.8003085E-3,1.1472403E-2,3.3392243E-2,4.2286593E-2,1.8378448E-2],"categories":[],"categories_nodes":[],"categories_segments":[],"categories_sizes":[],"default_left":[0,0,0,0,0,0,0,0,0,0,0,0,0,0,0,0,0],"id":52,"left_children":[1,3,-1,5,7,9,11,13,15,-1,-1,-1,-1,-1,-1,-1,-1],"loss_changes":[2.5681152E0,2.097992E0,0E0,1.5411072E0,2.1053276E0,3.0221558E-1,1.5353622E0,3.2155762E0,3.5092926E-1,0E0,0E0,0E0,0E0,0E0,0E0,0E0,0E0],"parents":[2147483647,0,0,1,1,3,3,4,4,5,5,6,6,7,7,8,8],"right_children":[2,4,-1,6,8,10,12,14,16,-1,-1,-1,-1,-1,-1,-1,-1],"split_conditions":[1E0,7.71E1,-0E0,5E-1,8.13E1,3.05E1,1E0,-2.8E0,1E0,4.214267E-2,3.3509992E-2,3.2862663E-2,4.8003085E-3,1.1472403E-2,3.3392243E-2,4.2286593E-2,1.8378448E-2],"split_indices":[7,23,0,5,23,1,8,46,4,0,0,0,0,0,0,0,0],"split_type":[0,0,0,0,0,0,0,0,0,0,0,0,0,0,0,0,0],"sum_hessian":[2.0213065E2,2.0108757E2,1.0430809E0,1.638395E2,3.724808E1,1.5493776E2,8.90173E0,2.2074236E1,1.5173843E1,1.4231212E2,1.2625636E1,6.97826E0,1.9234703E0,7.1832385E0,1.4890997E1,1.366871E1,1.5051342E0],"tree_param":{"num_deleted":"0","num_feature":"47","num_nodes":"17","size_leaf_vector":"0"}},{"base_weights":[1.5039604E0,-3.2497603E-3,1.5158645E0,1.6124096E0,1.375103E0,1.1336741E0,1.64424E0,6.946438E-1,1.4183604E0,1.7834416E-2,4.4776198E-2,4.3541886E-2,3.6388766E-2,3.2086466E-2,1.7834416E-2,3.7365865E-2,1.7834416E-2],"categories":[],"categories_nodes":[],"categories_segments":[],"categories_sizes":[],"default_left":[0,0,0,0,0,0,0,0,0,0,0,0,0,0,0,0,0],"id":53,"left_children":[1,-1,3,5,7,9,11,13,15,-1,-1,-1,-1,-1,-1,-1,-1],"loss_changes":[4.135437E0,0E0,1.8578796E0,1.0023499E0,2.212967E0,3.0881157E0,3.302307E-1,1.0110009E0,2.3992157E0,0E0,0E0,0E0,0E0,0E0,0E0,0E0,0E0],"parents":[2147483647,0,0,2,2,3,3,4,4,5,5,6,6,7,7,8,8],"right_children":[2,-1,4,6,8,10,12,14,16,-1,-1,-1,-1,-1,-1,-1,-1],"split_conditions":[-3.7E0,-3.2497603E-3,7E1,1.11E0,7.05E1,-2.5E0,1E0,1E0,1E0,1.7834416E-2,4.4776198E-2,4.3541886E-2,3.6388766E-2,3.2086466E-2,1.7834416E-2,3.7365865E-2,1.7834416E-2],"split_indices":[43,0,23,45,23,46,3,24,22,0,0,0,0,0,0,0,0],"split_type":[0,0,0,0,0,0,0,0,0,0,0,0,0,0,0,0,0],"sum_hessian":[1.9934875E2,1.3504204E0,1.9799834E2,1.1464359E2,8.335475E1,8.224243E0,1.0641935E2,5.1574965E0,7.819725E1,4.2497997E0,3.9744434E0,8.428896E1,2.2130388E1,3.0899084E0,2.0675879E0,7.517945E1,3.0178E0],"tree_param":{"num_deleted":"0","num_feature":"47","num_nodes":"17","size_leaf_vector":"0"}},{"base_weights":[1.5043657E0,1.5827541E0,1.2767571E0,1.604636E0,7.3509794E-1,9.75864E-1,1.4567628E0,6.434616E-3,1.6167582E0,3.599376E-2,3.072083E-1,1.129526E0,1.6538292E-1,1.5871364E0,3.1227859E-2,4.201625E-2,2.4119128E-2,-1.4733329E-2,2.2766035E-2,3.1227859E-2,1.28708985E-2,-5.775505E-3,2.0892281E-2,4.2588707E-2,3.1227859E-2],"categories":[],"categories_nodes":[],"categories_segments":[],"categories_sizes":[],"default_left":[0,0,0,0,0,0,0,0,0,0,0,0,0,0,0,0,0,0,0,0,0,0,0,0,0],"id":54,"left_children":[1,3,5,7,9,11,13,-1,15,-1,17,19,21,23,-1,-1,-1,-1,-1,-1,-1,-1,-1,-1,-1],"loss_changes":[2.7102966E0,2.1242676E0,2.2885818E0,1.9848022E0,1.1292565E0,2.468048E0,1.431488E0,0E0,1.1951904E0,0E0,2.1605916E0,2.8060627E0,1.3170394E0,5.5568695E-1,0E0,0E0,0E0,0E0,0E0,0E0,0E0,0E0,0E0,0E0,0E0],"parents":[2147483647,0,0,1,1,2,2,3,3,4,4,5,5,6,6,8,8,10,10,11,11,12,12,13,13],"right_children":[2,4,6,8,10,12,14,-1,16,-1,18,20,22,24,-1,-1,-1,-1,-1,-1,-1,-1,-1,-1,-1],"split_conditions":[2E0,1E0,-2.3E0,9.11E-1,7.1E1,1E0,1.325E0,6.434616E-3,1E0,3.599376E-2,7.67E1,2.46E1,1E0,1E0,3.1227859E-2,4.201625E-2,2.4119128E-2,-1.4733329E-2,2.2766035E-2,3.1227859E-2,1.28708985E-2,-5.775505E-3,2.0892281E-2,4.2588707E-2,3.1227859E-2],"split_indices":[41,22,42,45,23,28,45,0,8,0,23,1,40,39,0,0,0,0,0,0,0,0,0,0,0],"split_type":[0,0,0,0,0,0,0,0,0,0,0,0,0,0,0,0,0,0,0,0,0,0,0,0,0],"sum_hessian":[1.950196E2,1.4303084E2,5.198877E1,1.3897565E2,4.0552034E0,2.0595842E1,3.1392925E1,1.3874426E0,1.375882E2,1.1484416E0,2.906762E0,1.7072851E1,3.5229917E0,2.7220924E1,4.1720014E0,1.3301065E2,4.577542E0,1.0780898E0,1.828672E0,1.034004E1,6.7328105E0,2.2443752E0,1.2786164E0,2.4598948E1,2.6219752E0],"tree_param":{"num_deleted":"0","num_feature":"47","num_nodes":"25","size_leaf_vector":"0"}},{"base_weights":[1.4540582E0,1.4651037E0,1.0808839E-3,1.5082861E0,1.178085E0,1.7221694E0,1.4308342E0,8.945536E-1,1.5224763E0,4.5473143E-2,2.4036456E-2,9.1983015E-3,3.7535522E-2,3.0114928E-2,9.154146E-3,3.102764E-2,4.238489E-2],"categories":[],"categories_nodes":[],"categories_segments":[],"categories_sizes":[],"default_left":[0,0,0,0,0,0,0,0,0,0,0,0,0,0,0,0,0],"id":55,"left_children":[1,3,-1,5,7,9,11,13,15,-1,-1,-1,-1,-1,-1,-1,-1],"loss_changes":[2.9900208E0,1.8036804E0,0E0,1.9646301E0,2.270176E0,9.853058E-1,4.0319214E0,2.3116531E0,2.0520401E-1,0E0,0E0,0E0,0E0,0E0,0E0,0E0,0E0],"parents":[2147483647,0,0,1,1,3,3,4,4,5,5,6,6,7,7,8,8],"right_children":[2,4,-1,6,8,10,12,14,16,-1,-1,-1,-1,-1,-1,-1,-1],"split_conditions":[1E0,3E0,1.0808839E-3,6.19E1,-2E0,1E0,6.24E1,1E0,1.164E0,4.5473143E-2,2.4036456E-2,9.1983015E-3,3.7535522E-2,3.0114928E-2,9.154146E-3,3.102764E-2,4.238489E-2],"split_indices":[7,41,0,23,42,21,23,21,45,0,0,0,0,0,0,0,0],"split_type":[0,0,0,0,0,0,0,0,0,0,0,0,0,0,0,0,0],"sum_hessian":[2.0288768E2,2.012201E2,1.6675812E0,1.7317664E2,2.8043467E1,4.353396E1,1.2964267E2,1.6300385E1,1.1743083E1,4.0402077E1,3.1318815E0,3.894107E0,1.25748566E2,1.031229E1,5.9880943E0,2.3085773E0,9.434505E0],"tree_param":{"num_deleted":"0","num_feature":"47","num_nodes":"17","size_leaf_vector":"0"}},{"base_weights":[1.4314045E0,1.5134737E0,1.0606647E0,1.6098777E0,1.3981493E0,-3.5532003E-3,1.1272503E0,5.147038E-1,1.6384686E0,1.4257001E0,5.055915E-1,1.1676276E0,-0E0,2.2536058E-2,-0E0,4.3021824E-2,3.1032763E-2,3.1478744E-2,3.9748296E-2,-5.6226607E-3,3.2511648E-2,2.753781E-2,4.5967303E-2],"categories":[],"categories_nodes":[],"categories_segments":[],"categories_sizes":[],"default_left":[0,0,0,0,0,0,0,0,0,0,0,0,0,0,0,0,0,0,0,0,0,0,0],"id":56,"left_children":[1,3,5,7,9,-1,11,13,15,17,19,21,-1,-1,-1,-1,-1,-1,-1,-1,-1,-1,-1],"loss_changes":[5.163788E0,8.746338E-1,3.093319E0,2.111679E0,1.4502106E0,0E0,1.6142197E0,5.0452673E-1,4.5910645E-1,1.0234833E0,2.0490773E0,1.2984962E0,0E0,0E0,0E0,0E0,0E0,0E0,0E0,0E0,0E0,0E0,0E0],"parents":[2147483647,0,0,1,1,2,2,3,3,4,4,6,6,7,7,8,8,9,9,10,10,11,11],"right_children":[2,4,6,8,10,-1,12,14,16,18,20,22,-1,-1,-1,-1,-1,-1,-1,-1,-1,-1,-1],"split_conditions":[7.71E1,1E0,7.74E1,-3.1E0,1E0,-3.5532003E-3,8.91E1,6.68E1,1E0,-1.9E0,5.65E1,1E0,-0E0,2.2536058E-2,-0E0,4.3021824E-2,3.1032763E-2,3.1478744E-2,3.9748296E-2,-5.6226607E-3,3.2511648E-2,2.753781E-2,4.5967303E-2],"split_indices":[23,41,23,44,14,0,23,23,18,44,23,37,0,0,0,0,0,0,0,0,0,0,0],"split_type":[0,0,0,0,0,0,0,0,0,0,0,0,0,0,0,0,0,0,0,0,0,0,0],"sum_hessian":[1.9021922E2,1.5454755E2,3.5671673E1,8.099826E1,7.3549286E1,1.7668707E0,3.39048E1,2.3420625E0,7.86562E1,7.100758E1,2.5416975E0,3.2752285E1,1.1525168E0,1.1080378E0,1.2340246E0,7.114546E1,7.510739E0,2.8922209E1,4.2085377E1,1.3633684E0,1.1783291E0,2.9459183E1,3.2931025E0],"tree_param":{"num_deleted":"0","num_feature":"47","num_nodes":"23","size_leaf_vector":"0"}},{"base_weights":[1.4195005E0,1.4958838E0,1.2103567E0,1.510858E0,5.6244934E-1,1.0745859E0,1.5675585E0,8.7409955E-1,1.5358946E0,2.3155453E-2,1.2638004E-3,5.288738E-1,1.2163678E0,5.486272E-3,1.6864705E0,3.0937321E-2,1.0159006E-2,3.9993532E-2,3.0937321E-2,2.938531E-2,-3.1907782E-3,3.513033E-2,1.802332E-2,4.7174152E-2,2.763399E-2],"categories":[],"categories_nodes":[],"categories_segments":[],"categories_sizes":[],"default_left":[0,0,0,0,0,0,0,0,0,0,0,0,0,0,0,0,0,0,0,0,0,0,0,0,0],"id":57,"left_children":[1,3,5,7,9,11,13,15,17,-1,-1,19,21,-1,23,-1,-1,-1,-1,-1,-1,-1,-1,-1,-1],"loss_changes":[2.4493103E0,1.5653687E0,2.0601501E0,1.652832E0,4.7980857E-1,2.907467E0,1.9972496E0,8.839302E-1,4.407959E-1,0E0,0E0,4.0901847E0,2.1245155E0,0E0,3.8781357E-1,0E0,0E0,0E0,0E0,0E0,0E0,0E0,0E0,0E0,0E0],"parents":[2147483647,0,0,1,1,2,2,3,3,4,4,5,5,6,6,7,7,8,8,11,11,12,12,14,14],"right_children":[2,4,6,8,10,12,14,16,18,-1,-1,20,22,-1,24,-1,-1,-1,-1,-1,-1,-1,-1,-1,-1],"split_conditions":[2E0,8.42E1,2E0,-3E0,1.201E0,2.11E1,-3.5E0,2.17E1,5E-1,2.3155453E-2,1.2638004E-3,1.96E1,2.86E1,5.486272E-3,1E0,3.0937321E-2,1.0159006E-2,3.9993532E-2,3.0937321E-2,2.938531E-2,-3.1907782E-3,3.513033E-2,1.802332E-2,4.7174152E-2,2.763399E-2],"split_indices":[41,23,40,43,45,1,43,1,5,0,0,1,1,0,39,0,0,0,0,0,0,0,0,0,0],"split_type":[0,0,0,0,0,0,0,0,0,0,0,0,0,0,0,0,0,0,0,0,0,0,0,0,0],"sum_hessian":[1.9645699E2,1.4181615E2,5.4640827E1,1.3923021E2,2.5859458E0,4.0910393E1,1.3730435E1,5.946921E0,1.3328328E2,1.2538769E0,1.3320688E0,8.966351E0,3.194404E1,1.2694844E0,1.2460951E1,2.9196222E0,3.0272987E0,1.25133484E2,8.149798E0,4.558393E0,4.407958E0,2.4009964E1,7.9340773E0,9.2366085E0,3.2243428E0],"tree_param":{"num_deleted":"0","num_feature":"47","num_nodes":"25","size_leaf_vector":"0"}},{"base_weights":[1.3541354E0,1.4459734E0,1.0995531E0,1.5813771E0,1.2466065E0,1.1421868E0,-1.2697399E-2,5.826371E-1,1.6194295E0,7.776787E-1,1.3226514E0,7.4784674E-2,1.2018206E0,3.296206E-2,-2.0505749E-2,2.901348E-2,4.230171E-2,-7.55599E-3,2.6962135E-2,3.0865824E-2,4.1462883E-2,1.6387902E-2,-1.3824439E-2,3.1997066E-2,1.6389113E-2],"categories":[],"categories_nodes":[],"categories_segments":[],"categories_sizes":[],"default_left":[0,0,0,0,0,0,0,0,0,0,0,0,0,0,0,0,0,0,0,0,0,0,0,0,0],"id":58,"left_children":[1,3,5,7,9,11,-1,13,15,17,19,21,23,-1,-1,-1,-1,-1,-1,-1,-1,-1,-1,-1,-1],"loss_changes":[3.8310852E0,2.9842834E0,3.9602928E0,2.601059E0,1.6388092E0,3.1079636E0,0E0,4.313937E0,3.1619263E-1,3.8862143E0,1.0215836E0,2.057755E0,8.5284424E-1,0E0,0E0,0E0,0E0,0E0,0E0,0E0,0E0,0E0,0E0,0E0,0E0],"parents":[2147483647,0,0,1,1,2,2,3,3,4,4,5,5,7,7,8,8,9,9,10,10,11,11,12,12],"right_children":[2,4,6,8,10,12,-1,14,16,18,20,22,24,-1,-1,-1,-1,-1,-1,-1,-1,-1,-1,-1,-1],"split_conditions":[2E0,7.04E1,1E0,1.057E0,-2.76E0,-3.1E0,-1.2697399E-2,2.94E1,-2.8E0,1.086E0,2.6E1,1E0,1E0,3.296206E-2,-2.0505749E-2,2.901348E-2,4.230171E-2,-7.55599E-3,2.6962135E-2,3.0865824E-2,4.1462883E-2,1.6387902E-2,-1.3824439E-2,3.1997066E-2,1.6389113E-2],"split_indices":[41,23,7,45,43,43,0,1,43,45,1,24,39,0,0,0,0,0,0,0,0,0,0,0,0],"split_type":[0,0,0,0,0,0,0,0,0,0,0,0,0,0,0,0,0,0,0,0,0,0,0,0,0],"sum_hessian":[1.898108E2,1.3787552E2,5.193528E1,8.022396E1,5.7651566E1,5.0754642E1,1.1806376E0,3.2773156E0,7.694664E1,8.838697E0,4.8812866E1,2.8297253E0,4.7924915E1,2.245168E0,1.0321476E0,5.2505283E0,7.169611E1,2.1815615E0,6.6571364E0,3.6201134E1,1.2611733E1,1.1553473E0,1.6743779E0,4.381431E1,4.1106067E0],"tree_param":{"num_deleted":"0","num_feature":"47","num_nodes":"25","size_leaf_vector":"0"}},{"base_weights":[1.3334296E0,1.4051318E0,8.788738E-1,2.0451543E-1,1.4279326E0,1.0283607E0,-0E0,1.685486E-2,-1.1467674E-2,1.5399296E0,1.2216251E0,-1.2995171E-2,1.1208631E0,-1.8092433E-2,5.058815E-1,4.1562375E-2,3.4807343E-2,2.4527155E-2,3.520962E-2,3.7928466E-2,2.2766761E-2,2.1939587E-2,-0E0],"categories":[],"categories_nodes":[],"categories_segments":[],"categories_sizes":[],"default_left":[0,0,0,0,0,0,0,0,0,0,0,0,0,0,0,0,0,0,0,0,0,0,0],"id":59,"left_children":[1,3,5,7,9,11,13,-1,-1,15,17,-1,19,-1,21,-1,-1,-1,-1,-1,-1,-1,-1],"loss_changes":[5.601654E0,4.1669006E0,3.49794E0,1.3743196E0,2.9307556E0,3.6546535E0,1.9325459E0,0E0,0E0,6.2506104E-1,1.7970657E0,0E0,1.3326244E0,0E0,5.3078514E-1,0E0,0E0,0E0,0E0,0E0,0E0,0E0,0E0],"parents":[2147483647,0,0,1,1,2,2,3,3,4,4,5,5,6,6,9,9,10,10,12,12,14,14],"right_children":[2,4,6,8,10,12,14,-1,-1,16,18,-1,20,-1,22,-1,-1,-1,-1,-1,-1,-1,-1],"split_conditions":[3E0,9.81E-1,1E0,1E0,7.17E1,5.7E1,-2.2E0,1.685486E-2,-1.1467674E-2,2.48E1,7.53E1,-1.2995171E-2,1.2E0,-1.8092433E-2,1E0,4.1562375E-2,3.4807343E-2,2.4527155E-2,3.520962E-2,3.7928466E-2,2.2766761E-2,2.1939587E-2,-0E0],"split_indices":[41,45,3,34,23,23,43,0,0,1,23,0,45,0,19,0,0,0,0,0,0,0,0],"split_type":[0,0,0,0,0,0,0,0,0,0,0,0,0,0,0,0,0,0,0,0,0,0,0],"sum_hessian":[1.8704213E2,1.6066638E2,2.6375744E1,3.1557074E0,1.5751068E2,2.243962E1,3.9361248E0,1.9625033E0,1.1932042E0,1.001639E2,5.734677E1,1.111422E0,2.1328197E1,1.5428658E0,2.393259E0,6.764912E1,3.2514786E1,2.1910225E1,3.5436546E1,7.4745064E0,1.3853691E1,1.214621E0,1.1786381E0],"tree_param":{"num_deleted":"0","num_feature":"47","num_nodes":"23","size_leaf_vector":"0"}},{"base_weights":[1.392013E0,1.4948924E0,1.1684871E0,1.5177191E0,5.450183E-1,1.2014881E0,-0E0,1.5337504E0,1.120646E-2,-6.1523286E-3,2.9672908E-2,4.042885E-1,1.248847E0,3.9856255E-2,1.6970012E-2,2.1221457E-2,-1.9619106E-3,3.908076E-2,2.8712958E-2],"categories":[],"categories_nodes":[],"categories_segments":[],"categories_sizes":[],"default_left":[0,0,0,0,0,0,0,0,0,0,0,0,0,0,0,0,0,0,0],"id":60,"left_children":[1,3,5,7,9,11,-1,13,-1,-1,-1,15,17,-1,-1,-1,-1,-1,-1],"loss_changes":[3.5400696E0,2.2670898E0,2.1879272E0,1.71698E0,2.124109E0,1.917511E0,0E0,1.445282E0,0E0,0E0,0E0,1.1464221E0,1.3192291E0,0E0,0E0,0E0,0E0,0E0,0E0],"parents":[2147483647,0,0,1,1,2,2,3,3,4,4,5,5,7,7,11,11,12,12],"right_children":[2,4,6,8,10,12,-1,14,-1,-1,-1,16,18,-1,-1,-1,-1,-1,-1],"split_conditions":[7.35E1,1E0,3.42E1,3E0,-1.8025259E0,-3E0,-0E0,5E0,1.120646E-2,-6.1523286E-3,2.9672908E-2,1E0,1.2E0,3.9856255E-2,1.6970012E-2,2.1221457E-2,-1.9619106E-3,3.908076E-2,2.8712958E-2],"split_indices":[23,8,1,40,42,44,0,41,0,0,0,19,45,0,0,0,0,0,0],"split_type":[0,0,0,0,0,0,0,0,0,0,0,0,0,0,0,0,0,0,0],"sum_hessian":[1.82692E2,1.23303E2,5.9389E1,1.2007493E2,3.228072E0,5.766152E1,1.7274841E0,1.180636E2,2.0113285E0,1.4325013E0,1.7955706E0,3.5669148E0,5.40946E1,1.151833E2,2.880303E0,1.7236941E0,1.8432208E0,1.590765E1,3.818695E1],"tree_param":{"num_deleted":"0","num_feature":"47","num_nodes":"19","size_leaf_vector":"0"}},{"base_weights":[1.3596983E0,1.4794401E0,1.211627E0,8.172506E-1,1.5213304E0,9.580595E-1,1.3530803E0,2.6878542E-1,3.9681546E-2,3.9690517E-2,1.0342125E0,-1.8311586E-2,1.029554E0,1.1555699E0,1.483502E0,3.2773558E-2,-2.1485785E-2,3.7375838E-2,8.464098E-3,2.966832E-2,1.8032987E-2,2.966832E-2,4.29939E-2,4.1025966E-2,2.966832E-2],"categories":[],"categories_nodes":[],"categories_segments":[],"categories_sizes":[],"default_left":[0,0,0,0,0,0,0,0,0,0,0,0,0,0,0,0,0,0,0,0,0,0,0,0,0],"id":61,"left_children":[1,3,5,7,9,11,13,15,-1,-1,17,-1,19,21,23,-1,-1,-1,-1,-1,-1,-1,-1,-1,-1],"loss_changes":[2.485077E0,2.1394806E0,2.4495087E0,2.544701E0,4.2764282E-1,4.192747E0,8.480377E-1,5.733324E0,0E0,0E0,1.4771032E0,0E0,1.361042E0,7.272587E-1,1.39962E0,0E0,0E0,0E0,0E0,0E0,0E0,0E0,0E0,0E0,0E0],"parents":[2147483647,0,0,1,1,2,2,3,3,4,4,5,5,6,6,7,7,10,10,12,12,13,13,14,14],"right_children":[2,4,6,8,10,12,14,16,-1,-1,18,-1,20,22,24,-1,-1,-1,-1,-1,-1,-1,-1,-1,-1],"split_conditions":[7.02E1,1.095E0,-2E0,6.61E1,1E0,1.03E0,7.47E1,2.62E1,3.9681546E-2,3.9690517E-2,1E0,-1.8311586E-2,2E0,-8E-1,1.311E0,3.2773558E-2,-2.1485785E-2,3.7375838E-2,8.464098E-3,2.966832E-2,1.8032987E-2,2.966832E-2,4.29939E-2,4.1025966E-2,2.966832E-2],"split_indices":[23,45,44,23,14,45,23,1,0,0,41,0,41,44,45,0,0,0,0,0,0,0,0,0,0],"split_type":[0,0,0,0,0,0,0,0,0,0,0,0,0,0,0,0,0,0,0,0,0,0,0,0,0],"sum_hessian":[1.779409E2,9.609593E1,8.184496E1,6.334868E0,8.976106E1,3.0637136E1,5.120783E1,3.9947522E0,2.3401158E0,8.444968E1,5.311386E0,1.0542278E0,2.9582909E1,2.0592466E1,3.061536E1,2.112545E0,1.8822072E0,2.9729521E0,2.3384337E0,1.8215916E1,1.1366993E1,1.6837894E1,3.7545717E0,2.6238926E1,4.3764358E0],"tree_param":{"num_deleted":"0","num_feature":"47","num_nodes":"25","size_leaf_vector":"0"}},{"base_weights":[1.3359082E0,1.4572624E0,1.1817364E0,1.3038476E0,4.102669E-2,1.0966151E0,1.5655043E0,1.4301909E0,8.799088E-1,-2.4139637E-3,1.1189649E0,4.2657934E-2,1.7130788E-2,3.725096E-2,9.1851195E-3,2.9852893E-2,-1.6630401E-3,1.973117E-2,3.0950278E-2],"categories":[],"categories_nodes":[],"categories_segments":[],"categories_sizes":[],"default_left":[0,0,0,0,0,0,0,0,0,0,0,0,0,0,0,0,0,0,0],"id":62,"left_children":[1,3,5,7,-1,9,11,13,15,-1,17,-1,-1,-1,-1,-1,-1,-1,-1],"loss_changes":[2.6813965E0,1.3235626E0,2.0291214E0,2.125496E0,0E0,1.9806747E0,6.6280365E-1,1.5597076E0,3.5586367E0,0E0,1.6399612E0,0E0,0E0,0E0,0E0,0E0,0E0,0E0,0E0],"parents":[2147483647,0,0,1,1,2,2,3,3,5,5,6,6,7,7,8,8,10,10],"right_children":[2,4,6,8,-1,10,12,14,16,-1,18,-1,-1,-1,-1,-1,-1,-1,-1],"split_conditions":[7.02E1,-2E0,1E0,1E0,4.102669E-2,7.04E1,1.354E0,1E0,1E0,-2.4139637E-3,2.08E1,4.2657934E-2,1.7130788E-2,3.725096E-2,9.1851195E-3,2.9852893E-2,-1.6630401E-3,1.973117E-2,3.0950278E-2],"split_indices":[23,42,27,3,0,23,45,10,2,0,1,0,0,0,0,0,0,0,0],"split_type":[0,0,0,0,0,0,0,0,0,0,0,0,0,0,0,0,0,0,0],"sum_hessian":[1.7771982E2,9.726067E1,8.045915E1,4.8755962E1,4.850471E1,6.727774E1,1.3181413E1,3.6671192E1,1.2084769E1,1.1250789E0,6.6152664E1,1.1507585E1,1.6738282E0,3.4865494E1,1.8057005E0,9.324688E0,2.7600813E0,1.4091888E1,5.2060772E1],"tree_param":{"num_deleted":"0","num_feature":"47","num_nodes":"19","size_leaf_vector":"0"}},{"base_weights":[1.3315575E0,1.5386739E0,1.160268E0,-9.6695765E-4,1.563354E0,1.2012208E0,1.8800858E-1,4.1594E-2,1.0417839E0,-1.6400656E-3,1.2232779E0,-1.7510453E-2,9.908095E-1,4.3021478E-2,1.9585444E-2,3.3785146E-2,2.5187312E-2,3.523623E-2,7.9722E-3],"categories":[],"categories_nodes":[],"categories_segments":[],"categories_sizes":[],"default_left":[0,0,0,0,0,0,0,0,0,0,0,0,0,0,0,0,0,0,0],"id":63,"left_children":[1,3,5,-1,7,9,11,-1,13,-1,15,-1,17,-1,-1,-1,-1,-1,-1],"loss_changes":[5.726013E0,3.3239136E0,3.81044E0,0E0,1.6497192E0,2.8631744E0,3.845217E0,0E0,2.0540457E0,0E0,1.6227264E0,0E0,4.868846E-1,0E0,0E0,0E0,0E0,0E0,0E0],"parents":[2147483647,0,0,1,1,2,2,4,4,5,5,6,6,8,8,10,10,12,12],"right_children":[2,4,6,-1,8,10,12,-1,14,-1,16,-1,18,-1,-1,-1,-1,-1,-1],"split_conditions":[6.77E1,-4.2E0,3.29E1,-9.6695765E-4,1E0,-3.4E0,3.52E1,4.1594E-2,1E0,-1.6400656E-3,1.254E0,-1.7510453E-2,7.24E1,4.3021478E-2,1.9585444E-2,3.3785146E-2,2.5187312E-2,3.523623E-2,7.9722E-3],"split_indices":[23,42,1,0,21,44,1,0,41,0,45,0,23,0,0,0,0,0,0],"split_type":[0,0,0,0,0,0,0,0,0,0,0,0,0,0,0,0,0,0,0],"sum_hessian":[1.7981766E2,7.9742905E1,1.0007476E2,1.1562467E0,7.8586655E1,9.583441E1,4.240349E0,6.997179E1,8.614867E0,1.543017E0,9.429139E1,1.995126E0,2.2452228E0,3.020886E0,5.593981E0,6.666796E1,2.7623432E1,1.0880082E0,1.1572146E0],"tree_param":{"num_deleted":"0","num_feature":"47","num_nodes":"19","size_leaf_vector":"0"}},{"base_weights":[1.2099174E0,1.1566317E0,4.1061208E-2,1.1835433E0,4.2068964E-1,1.2321231E0,8.523721E-1,-3.5134226E-2,8.64143E-1,3.2507606E-2,2.1927811E-2,1.5812324E-2,3.3290077E-2,3.5378397E-2,-0E0],"categories":[],"categories_nodes":[],"categories_segments":[],"categories_sizes":[],"default_left":[0,0,0,0,0,0,0,0,0,0,0,0,0,0,0],"id":64,"left_children":[1,3,-1,5,7,9,11,-1,13,-1,-1,-1,-1,-1,-1],"loss_changes":[3.1415405E0,2.9549713E0,0E0,2.0926056E0,5.925211E0,1.2973633E0,1.9865541E0,0E0,2.452571E0,0E0,0E0,0E0,0E0,0E0,0E0],"parents":[2147483647,0,0,1,1,3,3,4,4,5,5,6,6,8,8],"right_children":[2,4,-1,6,8,10,12,-1,14,-1,-1,-1,-1,-1,-1],"split_conditions":[-1.4E0,1E0,4.1061208E-2,3E0,1.13E0,1E0,-1.8025259E0,-3.5134226E-2,1.253E0,3.2507606E-2,2.1927811E-2,1.5812324E-2,3.3290077E-2,3.5378397E-2,-0E0],"split_indices":[46,8,0,41,45,15,42,0,45,0,0,0,0,0,0],"split_type":[0,0,0,0,0,0,0,0,0,0,0,0,0,0,0],"sum_hessian":[1.8270557E2,1.6227856E2,2.0427E1,1.5618652E2,6.0920463E0,1.3502003E2,2.1166494E1,1.0042166E0,5.0878296E0,1.2278651E2,1.2233519E1,1.4563005E1,6.6034894E0,2.9593017E0,2.1285279E0],"tree_param":{"num_deleted":"0","num_feature":"47","num_nodes":"15","size_leaf_vector":"0"}},{"base_weights":[1.2642035E0,1.3664852E0,9.879413E-1,1.2668183E0,4.1156393E-2,6.291043E-1,1.1232768E0,1.2867329E0,-5.507841E-3,1.910706E-1,8.7619054E-1,1.2016857E0,2.249548E-2,3.3988897E-2,2.0555912E-2,1.8801777E-2,-1.0777196E-2,-6.2253173E-3,2.249548E-2,3.523419E-2,2.4769926E-2],"categories":[],"categories_nodes":[],"categories_segments":[],"categories_sizes":[],"default_left":[0,0,0,0,0,0,0,0,0,0,0,0,0,0,0,0,0,0,0,0,0],"id":65,"left_children":[1,3,5,7,-1,9,11,13,-1,15,17,19,-1,-1,-1,-1,-1,-1,-1,-1,-1],"loss_changes":[4.4695435E0,2.2645264E0,2.1098557E0,2.9907837E0,0E0,2.0484233E0,1.0005112E0,1.1921844E0,0E0,2.7094235E0,2.0768352E0,8.001976E-1,0E0,0E0,0E0,0E0,0E0,0E0,0E0,0E0,0E0],"parents":[2147483647,0,0,1,1,2,2,3,3,5,5,6,6,7,7,9,9,10,10,11,11],"right_children":[2,4,6,8,-1,10,12,14,-1,16,18,20,-1,-1,-1,-1,-1,-1,-1,-1,-1],"split_conditions":[2E0,-1.3E0,-2.6E0,3.42E1,4.1156393E-2,1E0,1.354E0,7.95E1,-5.507841E-3,3E0,2.01E1,3E0,2.249548E-2,3.3988897E-2,2.0555912E-2,1.8801777E-2,-1.0777196E-2,-6.2253173E-3,2.249548E-2,3.523419E-2,2.4769926E-2],"split_indices":[41,42,42,1,0,40,45,23,0,41,1,41,0,0,0,0,0,0,0,0,0],"split_type":[0,0,0,0,0,0,0,0,0,0,0,0,0,0,0,0,0,0,0,0,0],"sum_hessian":[1.7644083E2,1.2738907E2,4.9051758E1,9.163825E1,3.5750816E1,1.4241258E1,3.48105E1,9.054595E1,1.0922992E0,6.713E0,7.5282574E0,3.1900139E1,2.9103625E0,8.3306076E1,7.239879E0,3.616845E0,3.096155E0,1.3141286E0,6.2141285E0,1.7220634E1,1.4679503E1],"tree_param":{"num_deleted":"0","num_feature":"47","num_nodes":"21","size_leaf_vector":"0"}},{"base_weights":[1.2956083E0,5.597335E-1,1.3210375E0,9.403855E-1,-1.4648873E-1,1.357147E0,9.403855E-1,-2.6268372E-3,2.4143634E-2,8.586702E-3,-1.8633315E-2,9.771088E-1,1.3836432E0,3.8272336E-2,9.403855E-1,2.4143634E-2,3.6858182E-2,3.422532E-2,4.077574E-2,2.4143634E-2,3.545847E-2],"categories":[],"categories_nodes":[],"categories_segments":[],"categories_sizes":[],"default_left":[0,0,0,0,0,0,0,0,0,0,0,0,0,0,0,0,0,0,0,0,0],"id":66,"left_children":[1,3,5,7,9,11,13,-1,-1,-1,-1,15,17,-1,19,-1,-1,-1,-1,-1,-1],"loss_changes":[2.7499695E0,2.2230754E0,2.7775269E0,1.906898E0,1.0816582E0,9.7702026E-1,4.9256968E-1,0E0,0E0,0E0,0E0,6.7109776E-1,6.741333E-1,0E0,5.6619287E-2,0E0,0E0,0E0,0E0,0E0,0E0],"parents":[2147483647,0,0,1,1,2,2,3,3,4,4,5,5,6,6,11,11,12,12,14,14],"right_children":[2,4,6,8,10,12,14,-1,-1,-1,-1,16,18,-1,20,-1,-1,-1,-1,-1,-1],"split_conditions":[-3.1E0,1E0,1E0,1.97E1,2.27E1,1.086E0,6.73E1,-2.6268372E-3,2.4143634E-2,8.586702E-3,-1.8633315E-2,-1.6E0,1E0,3.8272336E-2,1E0,2.4143634E-2,3.6858182E-2,3.422532E-2,4.077574E-2,2.4143634E-2,3.545847E-2],"split_indices":[43,40,28,1,1,45,23,0,0,0,0,43,34,0,32,0,0,0,0,0,0],"split_type":[0,0,0,0,0,0,0,0,0,0,0,0,0,0,0,0,0,0,0,0,0],"sum_hessian":[1.6568138E2,5.9700193E0,1.5971136E2,3.6825166E0,2.2875025E0,1.510294E2,8.681962E0,1.4689587E0,2.2135577E0,1.2309349E0,1.0565678E0,1.1046423E1,1.3998299E2,1.9407651E0,6.741197E0,7.687096E0,3.359327E0,1.1493501E2,2.5047968E1,5.6231833E0,1.118014E0],"tree_param":{"num_deleted":"0","num_feature":"47","num_nodes":"21","size_leaf_vector":"0"}},{"base_weights":[1.2228376E0,1.3021116E0,6.856989E-1,1.4543247E0,1.1560515E0,4.9387816E-1,1.0967684E0,1.4728913E0,3.4010394E-3,1.1901032E0,3.2688886E-1,2.1807282E-1,1.1635219E0,1.3473496E0,5.539298E-1,4.088202E-2,3.464366E-2,2.7743058E-2,4.2015325E-2,1.6041793E-2,-6.708262E-3,1.1334369E-2,-1.5362262E-2,-0E0,3.8781997E-2,9.296781E-3,4.1931733E-2,3.333348E-2,-3.599692E-3],"categories":[],"categories_nodes":[],"categories_segments":[],"categories_sizes":[],"default_left":[0,0,0,0,0,0,0,0,0,0,0,0,0,0,0,0,0,0,0,0,0,0,0,0,0,0,0,0,0],"id":67,"left_children":[1,3,5,7,9,11,13,15,-1,17,19,21,23,25,27,-1,-1,-1,-1,-1,-1,-1,-1,-1,-1,-1,-1,-1,-1],"loss_changes":[6.8328857E0,2.6404114E0,1.6173248E0,1.5041351E0,1.9472504E0,2.9780068E0,6.0565376E-1,2.124176E-1,0E0,2.9899445E0,8.7515914E-1,2.4904523E0,1.8831649E0,8.8744736E-1,1.9011241E0,0E0,0E0,0E0,0E0,0E0,0E0,0E0,0E0,0E0,0E0,0E0,0E0,0E0,0E0],"parents":[2147483647,0,0,1,1,2,2,3,3,4,4,5,5,6,6,7,7,9,9,10,10,11,11,12,12,13,13,14,14],"right_children":[2,4,6,8,10,12,14,16,-1,18,20,22,24,26,28,-1,-1,-1,-1,-1,-1,-1,-1,-1,-1,-1,-1,-1,-1],"split_conditions":[3E0,6.77E1,5E0,6E0,3.37E1,7.76E1,2.44E1,6.07E1,3.4010394E-3,-1.08E0,1E0,7.59E1,-2.6E0,6.79E1,2E0,4.088202E-2,3.464366E-2,2.7743058E-2,4.2015325E-2,1.6041793E-2,-6.708262E-3,1.1334369E-2,-1.5362262E-2,-0E0,3.8781997E-2,9.296781E-3,4.1931733E-2,3.333348E-2,-3.599692E-3],"split_indices":[41,23,41,5,1,23,1,23,0,44,22,23,44,23,40,0,0,0,0,0,0,0,0,0,0,0,0,0,0],"split_type":[0,0,0,0,0,0,0,0,0,0,0,0,0,0,0,0,0,0,0,0,0,0,0,0,0,0,0,0,0],"sum_hessian":[1.6917352E2,1.4676897E2,2.240456E1,6.984734E1,7.692162E1,1.602582E1,6.378741E0,6.8753975E1,1.093368E0,7.36004E1,3.3212206E0,1.1821996E1,4.203824E0,3.8420763E0,2.5366645E0,3.22231E1,3.653088E1,6.0333294E1,1.326711E1,2.315407E0,1.0058137E0,9.525338E0,2.2966583E0,1.071186E0,3.132638E0,1.1437155E0,2.6983607E0,1.1440978E0,1.3925667E0],"tree_param":{"num_deleted":"0","num_feature":"47","num_nodes":"29","size_leaf_vector":"0"}},{"base_weights":[1.162486E0,1.2662472E0,7.4404824E-1,1.2957947E0,4.5072606E-1,9.809673E-1,-6.263313E-1,1.3089676E0,-2.7930718E-3,-3.019881E-2,1.0106492E0,7.763817E-2,1.2062795E0,-1.09882E0,1.1772808E-2,3.3948556E-2,5.6878016E-3,1.5087445E-3,3.25281E-2,1.0700855E-2,-2.3328925E-2,3.4782916E-2,1.6481772E-2,-8.219252E-3,-3.5672683E-2],"categories":[],"categories_nodes":[],"categories_segments":[],"categories_sizes":[],"default_left":[0,0,0,0,0,0,0,0,0,0,0,0,0,0,0,0,0,0,0,0,0,0,0,0,0],"id":68,"left_children":[1,3,5,7,9,11,13,15,-1,-1,17,19,21,23,-1,-1,-1,-1,-1,-1,-1,-1,-1,-1,-1],"loss_changes":[6.756378E0,2.8522644E0,1.1446558E1,2.550354E0,5.6391077E0,5.8028793E0,3.107268E0,1.5817719E0,0E0,0E0,9.1670656E-1,2.4746013E0,2.0997581E0,8.769984E-1,0E0,0E0,0E0,0E0,0E0,0E0,0E0,0E0,0E0,0E0,0E0],"parents":[2147483647,0,0,1,1,2,2,3,3,4,4,5,5,6,6,7,7,10,10,11,11,12,12,13,13],"right_children":[2,4,6,8,10,12,14,16,-1,-1,18,20,22,24,-1,-1,-1,-1,-1,-1,-1,-1,-1,-1,-1],"split_conditions":[7.66E1,1E0,1E0,1E0,1.146E0,-3.2E0,-1.8025259E0,1E0,-2.7930718E-3,-3.019881E-2,-2E0,1E0,1.301E0,7.78E1,1.1772808E-2,3.3948556E-2,5.6878016E-3,1.5087445E-3,3.25281E-2,1.0700855E-2,-2.3328925E-2,3.4782916E-2,1.6481772E-2,-8.219252E-3,-3.5672683E-2],"split_indices":[23,8,3,7,45,46,42,9,0,0,44,29,45,23,0,0,0,0,0,0,0,0,0,0,0],"split_type":[0,0,0,0,0,0,0,0,0,0,0,0,0,0,0,0,0,0,0,0,0,0,0,0,0],"sum_hessian":[1.642022E2,1.3075073E2,3.3451473E1,1.25833015E2,4.917712E0,2.8681368E1,4.770107E0,1.247682E2,1.0648117E0,1.1020243E0,3.815688E0,5.9257855E0,2.275558E1,3.391467E0,1.3786399E0,1.2307695E2,1.691255E0,1.0001458E0,2.8155422E0,4.6554155E0,1.2703702E0,1.849331E1,4.262271E0,1.025687E0,2.36578E0],"tree_param":{"num_deleted":"0","num_feature":"47","num_nodes":"25","size_leaf_vector":"0"}},{"base_weights":[1.2219014E0,3.60847E-1,1.2646306E0,-2.4973865E-1,6.360146E-1,1.3713562E0,9.960583E-1,-2.3094965E-2,1.1125284E-2,2.0866409E-2,-7.901274E-3,1.4190309E0,9.824163E-1,9.117706E-1,4.2136405E-2,3.4195382E-2,4.2576633E-2,2.0866409E-2,3.2628108E-2,2.7253691E-2,2.0866409E-2],"categories":[],"categories_nodes":[],"categories_segments":[],"categories_sizes":[],"default_left":[0,0,0,0,0,0,0,0,0,0,0,0,0,0,0,0,0,0,0,0,0],"id":69,"left_children":[1,3,5,7,9,11,13,-1,-1,-1,-1,15,17,19,-1,-1,-1,-1,-1,-1,-1],"loss_changes":[5.697983E0,1.6166639E0,3.885376E0,1.6507092E0,2.0190809E0,1.4587097E0,1.9742737E0,0E0,0E0,0E0,0E0,1.1884918E0,1.8877869E0,1.3012772E0,0E0,0E0,0E0,0E0,0E0,0E0,0E0],"parents":[2147483647,0,0,1,1,2,2,3,3,4,4,5,5,6,6,11,11,12,12,13,13],"right_children":[2,4,6,8,10,12,14,-1,-1,-1,-1,16,18,20,-1,-1,-1,-1,-1,-1,-1],"split_conditions":[-3.1E0,1.17E0,2E0,2.08E1,2.35E1,7.78E1,1E0,-2.3094965E-2,1.1125284E-2,2.0866409E-2,-7.901274E-3,-1.23E0,7.85E1,1E0,4.2136405E-2,3.4195382E-2,4.2576633E-2,2.0866409E-2,3.2628108E-2,2.7253691E-2,2.0866409E-2],"split_indices":[43,45,41,1,1,23,2,0,0,0,0,42,23,21,0,0,0,0,0,0,0],"split_type":[0,0,0,0,0,0,0,0,0,0,0,0,0,0,0,0,0,0,0,0,0],"sum_hessian":[1.616453E2,7.933983E0,1.537113E2,2.349093E0,5.58489E0,1.0859719E2,4.511412E1,1.2268811E0,1.1222117E0,4.2379174E0,1.3469725E0,9.559641E1,1.3000776E1,4.0856445E1,4.2576723E0,7.2231544E1,2.3364868E1,1.6717927E0,1.1328983E1,3.0649982E1,1.0206465E1],"tree_param":{"num_deleted":"0","num_feature":"47","num_nodes":"21","size_leaf_vector":"0"}},{"base_weights":[1.2021085E0,2.4368438E-1,1.2292777E0,-9.7523695E-3,7.031516E-1,9.3336874E-1,1.2761708E0,1.8908555E-2,-0E0,1.1047698E0,7.364811E-1,1.1047698E0,1.3227203E0,2.8364068E-2,1.8908555E-2,2.8364068E-2,1.8908555E-2,3.9749794E-2,2.8364068E-2,3.444576E-2,2.8364068E-2],"categories":[],"categories_nodes":[],"categories_segments":[],"categories_sizes":[],"default_left":[0,0,0,0,0,0,0,0,0,0,0,0,0,0,0,0,0,0,0,0,0],"id":70,"left_children":[1,3,5,-1,7,9,11,-1,-1,13,15,17,19,-1,-1,-1,-1,-1,-1,-1,-1],"loss_changes":[3.9133148E0,1.7440238E0,1.6620026E0,0E0,5.0741565E-1,1.9618893E0,8.353424E-1,0E0,0E0,2.8711319E-2,5.5787253E-1,8.951111E-1,2.427063E-1,0E0,0E0,0E0,0E0,0E0,0E0,0E0,0E0],"parents":[2147483647,0,0,1,1,2,2,4,4,5,5,6,6,9,9,10,10,11,11,12,12],"right_children":[2,4,6,-1,8,10,12,-1,-1,14,16,18,20,-1,-1,-1,-1,-1,-1,-1,-1],"split_conditions":[-3.3E0,1.103E0,-3E0,-9.7523695E-3,1E0,2.23E1,1.174E0,1.8908555E-2,-0E0,7.66E1,1.176E0,1.068E0,1E0,2.8364068E-2,1.8908555E-2,2.8364068E-2,1.8908555E-2,3.9749794E-2,2.8364068E-2,3.444576E-2,2.8364068E-2],"split_indices":[43,45,42,0,24,1,45,0,0,23,45,45,8,0,0,0,0,0,0,0,0],"split_type":[0,0,0,0,0,0,0,0,0,0,0,0,0,0,0,0,0,0,0,0,0],"sum_hessian":[1.5823502E2,4.5788527E0,1.5365617E2,1.866783E0,2.7120697E0,2.2420189E1,1.3123598E2,1.4880471E0,1.2240226E0,1.1566079E1,1.085411E1,2.3197062E1,1.0803892E2,8.783154E0,2.7829254E0,3.5480025E0,7.3061075E0,6.0020823E0,1.7194979E1,1.0382595E2,4.2129703E0],"tree_param":{"num_deleted":"0","num_feature":"47","num_nodes":"21","size_leaf_vector":"0"}},{"base_weights":[1.1525855E0,9.2098135E-1,1.3972822E0,1.2320166E0,7.57152E-1,9.9404323E-1,1.4968696E0,1.3469315E0,5.3821516E-1,3.8673196E-2,6.871192E-1,1.1520216E0,2.087327E-1,3.1976085E-2,4.022509E-2,4.3722214E-3,3.6985565E-2,-5.4415734E-3,3.104388E-2,-1.4734544E-2,1.851656E-2,1.851863E-2,3.1976085E-2,-1.2073657E-2,1.872817E-2],"categories":[],"categories_nodes":[],"categories_segments":[],"categories_sizes":[],"default_left":[0,0,0,0,0,0,0,0,0,0,0,0,0,0,0,0,0,0,0,0,0,0,0,0,0],"id":71,"left_children":[1,3,5,7,9,11,13,15,17,-1,19,21,23,-1,-1,-1,-1,-1,-1,-1,-1,-1,-1,-1,-1],"loss_changes":[8.868423E0,4.053421E0,2.5901337E0,1.96455E0,2.7095566E0,1.9534264E0,3.6360168E-1,2.472683E0,2.855093E0,0E0,2.6087055E0,9.1358566E-1,1.5931329E0,0E0,0E0,0E0,0E0,0E0,0E0,0E0,0E0,0E0,0E0,0E0,0E0],"parents":[2147483647,0,0,1,1,2,2,3,3,4,4,5,5,6,6,7,7,8,8,10,10,11,11,12,12],"right_children":[2,4,6,8,10,12,14,16,18,-1,20,22,24,-1,-1,-1,-1,-1,-1,-1,-1,-1,-1,-1,-1],"split_conditions":[1.218E0,6.58E1,-2.5E0,1E0,1.87E1,7.62E1,1.266E0,-2.9E0,1.178E0,3.8673196E-2,1.91E1,6.36E1,7.97E1,3.1976085E-2,4.022509E-2,4.3722214E-3,3.6985565E-2,-5.4415734E-3,3.104388E-2,-1.4734544E-2,1.851656E-2,1.851863E-2,3.1976085E-2,-1.2073657E-2,1.872817E-2],"split_indices":[45,23,42,19,1,23,45,44,45,0,1,23,23,0,0,0,0,0,0,0,0,0,0,0,0],"split_type":[0,0,0,0,0,0,0,0,0,0,0,0,0,0,0,0,0,0,0,0,0,0,0,0,0],"sum_hessian":[1.6461447E2,8.572427E1,7.8890205E1,2.8494122E1,5.7230152E1,1.6664463E1,6.222574E1,2.4003328E1,4.4907928E0,4.0972376E0,5.3132915E1,1.3608771E1,3.0556922E0,1.52548065E1,4.6970936E1,1.9357185E0,2.206761E1,2.1627243E0,2.3280683E0,1.155648E0,5.197727E1,5.866059E0,7.742713E0,1.2487186E0,1.8069736E0],"tree_param":{"num_deleted":"0","num_feature":"47","num_nodes":"25","size_leaf_vector":"0"}},{"base_weights":[1.1235102E0,1.2502866E0,7.9807866E-1,1.304397E0,8.1390464E-1,9.2372066E-1,3.5301214E-1,1.3195255E0,9.409485E-3,-1.4834907E-2,1.0141569E0,6.990014E-1,1.3512255E0,8.188793E-1,-1.497534E-1,3.4449894E-2,1.7253803E-2,3.1013248E-2,5.601375E-3,2.2216225E-2,-1.5772142E-2,1.1409251E-2,3.8771886E-2,3.4647282E-2,2.3778027E-3,-2.6010916E-2,8.500032E-3],"categories":[],"categories_nodes":[],"categories_segments":[],"categories_sizes":[],"default_left":[0,0,0,0,0,0,0,0,0,0,0,0,0,0,0,0,0,0,0,0,0,0,0,0,0,0,0],"id":72,"left_children":[1,3,5,7,9,11,13,15,-1,-1,17,19,21,23,25,-1,-1,-1,-1,-1,-1,-1,-1,-1,-1,-1,-1],"loss_changes":[6.0662994E0,2.1989899E0,2.3696175E0,1.1145935E0,4.223674E0,3.013525E0,2.7783542E0,9.8817444E-1,0E0,0E0,2.659443E0,5.5960264E0,1.3106136E0,2.1496592E0,2.7014432E0,0E0,0E0,0E0,0E0,0E0,0E0,0E0,0E0,0E0,0E0,0E0,0E0],"parents":[2147483647,0,0,1,1,2,2,3,3,4,4,5,5,6,6,7,7,10,10,11,11,12,12,13,13,14,14],"right_children":[2,4,6,8,10,12,14,16,-1,-1,18,20,22,24,26,-1,-1,-1,-1,-1,-1,-1,-1,-1,-1,-1,-1],"split_conditions":[2E0,1E0,1E0,1E1,-3.3E0,2.56E1,7.43E1,1E0,9.409485E-3,-1.4834907E-2,1E0,1E0,-2.8E0,2.57E1,1.185E0,3.4449894E-2,1.7253803E-2,3.1013248E-2,5.601375E-3,2.2216225E-2,-1.5772142E-2,1.1409251E-2,3.8771886E-2,3.4647282E-2,2.3778027E-3,-2.6010916E-2,8.500032E-3],"split_indices":[41,40,21,5,46,1,23,8,0,0,3,39,46,1,45,0,0,0,0,0,0,0,0,0,0,0,0],"split_type":[0,0,0,0,0,0,0,0,0,0,0,0,0,0,0,0,0,0,0,0,0,0,0,0,0,0,0],"sum_hessian":[1.5628606E2,1.1145529E2,4.4830757E1,9.826649E1,1.3188803E1,3.444988E1,1.038088E1,9.643863E1,1.8278575E0,1.499547E0,1.1689256E1,2.3401009E1,1.104887E1,5.3811975E0,4.999683E0,9.2673256E1,3.7653785E0,1.0115775E1,1.5734804E0,2.0960161E1,2.4408476E0,1.965352E0,9.083518E0,2.8340151E0,2.547182E0,1.7229898E0,3.2766929E0],"tree_param":{"num_deleted":"0","num_feature":"47","num_nodes":"27","size_leaf_vector":"0"}},{"base_weights":[1.1995455E0,1.352564E0,1.0684131E0,1.376137E0,1.0700405E-2,9.54483E-1,1.3518711E0,1.3912197E0,1.37286065E-2,9.948392E-1,6.280661E-2,1.4667368E0,2.9606884E-2,3.6624663E-2,2.5726797E-2,2.9606884E-2,2.0794863E-2,1.7676357E-2,-2.1231936E-2,2.9606884E-2,4.2412665E-2],"categories":[],"categories_nodes":[],"categories_segments":[],"categories_sizes":[],"default_left":[0,0,0,0,0,0,0,0,0,0,0,0,0,0,0,0,0,0,0,0,0],"id":73,"left_children":[1,3,5,7,-1,9,11,13,-1,15,17,19,-1,-1,-1,-1,-1,-1,-1,-1,-1],"loss_changes":[2.520752E0,1.1955948E0,2.2578888E0,4.7357178E-1,0E0,2.102085E0,4.2817307E-1,3.175354E-1,0E0,1.6569824E0,2.301708E0,4.492607E-1,0E0,0E0,0E0,0E0,0E0,0E0,0E0,0E0,0E0],"parents":[2147483647,0,0,1,1,2,2,3,3,5,5,6,6,7,7,9,9,10,10,11,11],"right_children":[2,4,6,8,-1,10,12,14,-1,16,18,20,-1,-1,-1,-1,-1,-1,-1,-1,-1],"split_conditions":[1E0,8.2E1,-1.3E0,1E0,1.0700405E-2,1E0,2.91E1,1E0,1.37286065E-2,2.26E1,7.28E1,2.38E1,2.9606884E-2,3.6624663E-2,2.5726797E-2,2.9606884E-2,2.0794863E-2,1.7676357E-2,-2.1231936E-2,2.9606884E-2,4.2412665E-2],"split_indices":[41,23,44,13,0,8,1,15,0,1,23,1,0,0,0,0,0,0,0,0,0],"split_type":[0,0,0,0,0,0,0,0,0,0,0,0,0,0,0,0,0,0,0,0,0],"sum_hessian":[1.5218448E2,6.8222336E1,8.396214E1,6.6256805E1,1.9655254E0,6.134257E1,2.2619568E1,6.47181E1,1.5387083E0,5.852473E1,2.8178434E0,1.8032227E1,4.587341E0,5.8154408E1,6.5636935E0,2.7707165E1,3.0817564E1,1.7782688E0,1.0395747E0,7.4858556E0,1.0546371E1],"tree_param":{"num_deleted":"0","num_feature":"47","num_nodes":"21","size_leaf_vector":"0"}},{"base_weights":[1.1199713E0,1.0102508E0,1.4093513E0,1.0281751E0,-1.42766945E-2,3.6970694E-2,8.655126E-1,1.0419501E0,-1.3177303E-3,1.1287058E-2,3.1821538E-2,2.1673162E-2,2.941147E-2],"categories":[],"categories_nodes":[],"categories_segments":[],"categories_sizes":[],"default_left":[0,0,0,0,0,0,0,0,0,0,0,0,0],"id":74,"left_children":[1,3,5,7,-1,-1,9,11,-1,-1,-1,-1,-1],"loss_changes":[4.3247986E0,3.5442123E0,1.5210724E-1,1.7971191E0,0E0,0E0,3.1597877E-1,1.8760071E0,0E0,0E0,0E0,0E0,0E0],"parents":[2147483647,0,0,1,1,2,2,3,3,6,6,7,7],"right_children":[2,4,6,8,-1,-1,10,12,-1,-1,-1,-1,-1],"split_conditions":[1.29E0,1E0,7.95E1,1.287E0,-1.42766945E-2,3.6970694E-2,8.32E1,-2E0,-1.3177303E-3,1.1287058E-2,3.1821538E-2,2.1673162E-2,2.941147E-2],"split_indices":[45,7,23,45,0,0,23,44,0,0,0,0,0],"split_type":[0,0,0,0,0,0,0,0,0,0,0,0,0],"sum_hessian":[1.5204736E2,1.1175062E2,4.029674E1,1.1068458E2,1.0660356E0,3.7366272E1,2.9304702E0,1.0940534E2,1.2792406E0,1.8922205E0,1.0382496E0,3.9163925E1,7.024142E1],"tree_param":{"num_deleted":"0","num_feature":"47","num_nodes":"13","size_leaf_vector":"0"}},{"base_weights":[1.1384357E0,1.3989099E0,9.747998E-1,5.997368E-1,1.4644023E0,-2.0923974E-1,1.0156637E0,-2.54053E-3,9.4499177E-1,1.0320696E0,3.9494067E-2,1.7000212E-1,-2.330234E-2,1.0311491E0,-4.8169526E-3,2.6497548E-2,5.9636836E-3,2.6497548E-2,3.5996914E-2,-5.7427753E-3,1.5106198E-2,2.6889734E-2,-1.2773497E-3],"categories":[],"categories_nodes":[],"categories_segments":[],"categories_sizes":[],"default_left":[0,0,0,0,0,0,0,0,0,0,0,0,0,0,0,0,0,0,0,0,0,0,0],"id":75,"left_children":[1,3,5,7,9,11,13,-1,15,17,-1,19,-1,21,-1,-1,-1,-1,-1,-1,-1,-1,-1],"loss_changes":[6.1077423E0,2.6602707E0,4.906807E0,1.4866693E0,1.2113647E0,1.2481592E0,1.957962E0,0E0,6.212039E-1,5.0190926E-2,0E0,6.3709986E-1,0E0,1.767601E0,0E0,0E0,0E0,0E0,0E0,0E0,0E0,0E0,0E0],"parents":[2147483647,0,0,1,1,2,2,3,3,4,4,5,5,6,6,8,8,9,9,11,11,13,13],"right_children":[2,4,6,8,10,12,14,-1,16,18,-1,20,-1,22,-1,-1,-1,-1,-1,-1,-1,-1,-1],"split_conditions":[6.6E1,-2.7E0,6.64E1,5.72E1,1.168E0,1E0,8E0,-2.54053E-3,1E0,2.69E1,3.9494067E-2,1.201E0,-2.330234E-2,8E0,-4.8169526E-3,2.6497548E-2,5.9636836E-3,2.6497548E-2,3.5996914E-2,-5.7427753E-3,1.5106198E-2,2.6889734E-2,-1.2773497E-3],"split_indices":[23,44,23,23,45,24,41,0,19,1,0,45,0,5,0,0,0,0,0,0,0,0,0],"split_type":[0,0,0,0,0,0,0,0,0,0,0,0,0,0,0,0,0,0,0,0,0,0,0],"sum_hessian":[1.5468681E2,5.832504E1,9.636178E1,4.836287E0,5.348875E1,3.0716374E0,9.329014E1,1.5808029E0,3.255484E0,8.350496E0,4.5138256E1,2.0709069E0,1.0007305E0,9.224978E1,1.0403591E0,1.7417781E0,1.513706E0,6.041972E0,2.3085241E0,1.0190825E0,1.0518245E0,9.100154E1,1.2482429E0],"tree_param":{"num_deleted":"0","num_feature":"47","num_nodes":"23","size_leaf_vector":"0"}},{"base_weights":[1.0153904E0,8.6199176E-1,1.2682693E0,1.356031E0,7.645128E-1,1.4230865E0,1.0630287E0,2.6309406E-3,3.6938112E-2,1.017879E0,6.439784E-1,1.4586859E0,7.8171265E-1,3.4428424E-1,1.2276044E0,3.722592E-2,1.8023485E-2,4.017779E-3,2.1422647E-2,3.2287024E-2,4.1095592E-2,3.0727925E-2,2.820285E-4,1.7957143E-2,-2.143537E-2,3.6180105E-2,2.0178484E-2],"categories":[],"categories_nodes":[],"categories_segments":[],"categories_sizes":[],"default_left":[0,0,0,0,0,0,0,0,0,0,0,0,0,0,0,0,0,0,0,0,0,0,0,0,0,0,0],"id":76,"left_children":[1,3,5,7,9,11,13,-1,-1,15,17,19,21,23,25,-1,-1,-1,-1,-1,-1,-1,-1,-1,-1,-1,-1],"loss_changes":[5.6765747E0,4.419922E0,1.271141E0,1.433754E0,2.3244438E0,2.2711182E-1,2.945034E0,0E0,0E0,3.183344E0,5.304823E0,7.70607E-2,8.0017745E-1,2.8307972E0,2.0025215E0,0E0,0E0,0E0,0E0,0E0,0E0,0E0,0E0,0E0,0E0,0E0,0E0],"parents":[2147483647,0,0,1,1,2,2,3,3,4,4,5,5,6,6,9,9,10,10,11,11,12,12,13,13,14,14],"right_children":[2,4,6,8,10,12,14,-1,-1,16,18,20,22,24,26,-1,-1,-1,-1,-1,-1,-1,-1,-1,-1,-1,-1],"split_conditions":[1.241E0,6.18E1,2.33E1,1.074E0,1.154E0,1E0,-2E0,2.6309406E-3,3.6938112E-2,2.29E1,-2.8E0,6.65E1,6.02E1,1.347E0,2E0,3.722592E-2,1.8023485E-2,4.017779E-3,2.1422647E-2,3.2287024E-2,4.1095592E-2,3.0727925E-2,2.820285E-4,1.7957143E-2,-2.143537E-2,3.6180105E-2,2.0178484E-2],"split_indices":[45,23,1,45,45,18,44,0,0,1,42,23,23,45,41,0,0,0,0,0,0,0,0,0,0,0,0],"split_type":[0,0,0,0,0,0,0,0,0,0,0,0,0,0,0,0,0,0,0,0,0,0,0,0,0,0,0],"sum_hessian":[1.56261E2,9.8567955E1,5.7693047E1,1.52547865E1,8.331317E1,3.1304493E1,2.6388554E1,1.079935E0,1.4174851E1,2.5656492E1,5.7656673E1,2.9039303E1,2.2651901E0,5.2598057E0,2.1128748E1,1.0116075E1,1.5540418E1,1.6553226E1,4.1103447E1,1.38755E1,1.5163802E1,1.2427753E0,1.0224149E0,4.2328253E0,1.0269804E0,1.6070814E1,5.0579343E0],"tree_param":{"num_deleted":"0","num_feature":"47","num_nodes":"27","size_leaf_vector":"0"}},{"base_weights":[1.0357876E0,1.0790145E0,-1.0268543E-1,1.2099849E0,8.3290416E-1,-8.625532E-1,7.255011E-1,1.6917592E-1,1.2333691E0,9.971582E-1,2.3564795E-1,-5.10659E-2,3.9758794E-3,1.8846616E-3,2.6041348E-2,-3.5678907E-3,1.2742324E-2,3.245221E-2,1.8004602E-2,1.5440032E-2,3.220088E-2,1.07738795E-2,-2.381599E-2],"categories":[],"categories_nodes":[],"categories_segments":[],"categories_sizes":[],"default_left":[0,0,0,0,0,0,0,0,0,0,0,0,0,0,0,0,0,0,0,0,0,0,0],"id":77,"left_children":[1,3,5,7,9,11,13,15,17,19,21,-1,-1,-1,-1,-1,-1,-1,-1,-1,-1,-1,-1],"loss_changes":[7.559616E0,4.2669525E0,4.1897006E0,2.0759888E0,4.9350433E0,4.3109574E0,4.728948E-1,4.312945E-1,1.3223419E0,3.7994995E0,2.861869E0,0E0,0E0,0E0,0E0,0E0,0E0,0E0,0E0,0E0,0E0,0E0,0E0],"parents":[2147483647,0,0,1,1,2,2,3,3,4,4,5,5,6,6,7,7,8,8,9,9,10,10],"right_children":[2,4,6,8,10,12,14,16,18,20,22,-1,-1,-1,-1,-1,-1,-1,-1,-1,-1,-1,-1],"split_conditions":[1E0,2.49E1,7.03E1,-3.4E0,1E0,-1.5E0,7.43E1,2E0,1E0,-2.3E0,4E0,-5.10659E-2,3.9758794E-3,1.8846616E-3,2.6041348E-2,-3.5678907E-3,1.2742324E-2,3.245221E-2,1.8004602E-2,1.5440032E-2,3.220088E-2,1.07738795E-2,-2.381599E-2],"split_indices":[8,1,23,43,29,42,23,41,28,46,41,0,0,0,0,0,0,0,0,0,0,0,0],"split_type":[0,0,0,0,0,0,0,0,0,0,0,0,0,0,0,0,0,0,0,0,0,0,0],"sum_hessian":[1.4950327E2,1.4414809E2,5.3551836E0,9.282421E1,5.132387E1,2.855187E0,2.499997E0,2.2129142E0,9.06113E1,3.9909187E1,1.1414682E1,1.236982E0,1.618205E0,1.0310217E0,1.4689752E0,1.0744836E0,1.1384306E0,8.571273E1,4.8985686E0,1.637998E1,2.3529207E1,1.0146319E1,1.268363E0],"tree_param":{"num_deleted":"0","num_feature":"47","num_nodes":"23","size_leaf_vector":"0"}},{"base_weights":[1.0463481E0,1.2136267E0,8.3651435E-1,1.263094E0,-1.24213295E-2,7.6541084E-1,3.9701432E-2,-7.263926E-3,1.2867929E0,3.366334E-2,-3.4414597E-2,6.7252594E-1,1.1558833E0,3.7275612E-2,2.88146E-2,2.0750567E-2,3.5152459E-3,2.9676367E-2,1.5084956E-2],"categories":[],"categories_nodes":[],"categories_segments":[],"categories_sizes":[],"default_left":[0,0,0,0,0,0,0,0,0,0,0,0,0,0,0,0,0,0,0],"id":78,"left_children":[1,3,5,7,9,11,-1,-1,13,-1,-1,15,17,